{"learner":{"attributes":{"best_iteration":"22","best_score":"0.47699341950565577","scikit_learn":"{\"_estimator_type\": \"classifier\"}"},"feature_names":[],"feature_types":[],"gradient_booster":{"model":{"gbtree_model_param":{"num_parallel_tree":"1","num_trees":"33"},"iteration_indptr":[0,1,2,3,4,5,6,7,8,9,10,11,12,13,14,15,16,17,18,19,20,21,22,23,24,25,26,27,28,29,30,31,32,33],"tree_info":[0,0,0,0,0,0,0,0,0,0,0,0,0,0,0,0,0,0,0,0,0,0,0,0,0,0,0,0,0,0,0,0,0],"trees":[{"base_weights":[-1.3725E-2,-2.7573034E-2,7.448002E-1,6.0959425E-2,-1.4751633E-1,-3.3792743E-1,1.7679663E0,-4.394931E-2,2.2968611E-1,-2.3155005E-1,2.6473933E-1,4.0021682E-1,-8.0381733E-1,5.0798734E-4,2.1663175E0,-9.675398E-3,3.706691E-2,4.138527E-2,-3.8391494E-3,1.1897781E-3,-3.2057106E-2,9.599212E-3,1.5736434E-1,-6.3363366E-2,1.1903765E-1,-1.06675215E-2,-9.2754215E-2,2.9677176E-1,8.4791355E-2],"categories":[],"categories_nodes":[],"categories_segments":[],"categories_sizes":[],"default_left":[0,0,0,0,0,0,0,0,0,0,0,0,0,0,0,0,0,0,0,0,0,0,0,0,0,0,0,0,0],"id":0,"left_children":[1,3,5,7,9,11,13,15,17,19,21,23,25,-1,27,-1,-1,-1,-1,-1,-1,-1,-1,-1,-1,-1,-1,-1,-1],"loss_changes":[8.931397E0,8.947201E0,1.7621716E1,8.596512E0,1.2456117E1,3.1805325E0,5.419792E0,6.55329E0,9.241336E0,6.4932833E0,1.3124933E1,3.8780937E0,2.6684737E-1,0E0,3.9820728E0,0E0,0E0,0E0,0E0,0E0,0E0,0E0,0E0,0E0,0E0,0E0,0E0,0E0,0E0],"parents":[2147483647,0,0,1,1,2,2,3,3,4,4,5,5,6,6,7,7,8,8,9,9,10,10,11,11,12,12,14,14],"right_children":[2,4,6,8,10,12,14,16,18,20,22,24,26,-1,28,-1,-1,-1,-1,-1,-1,-1,-1,-1,-1,-1,-1,-1,-1],"split_conditions":[4.659182E1,2.6966255E1,2.6225393E1,2.7981983E1,3.9507668E1,1.7372503E1,1.5849879E1,3.73737E1,2.8032595E1,1.9080793E1,3.73737E1,2.1735174E1,1.6261152E1,5.0798734E-4,2.3986794E1,-9.675398E-3,3.706691E-2,4.138527E-2,-3.8391494E-3,1.1897781E-3,-3.2057106E-2,9.599212E-3,1.5736434E-1,-6.3363366E-2,1.1903765E-1,-1.06675215E-2,-9.2754215E-2,2.9677176E-1,8.4791355E-2],"split_indices":[9,5,5,8,5,5,1,13,14,14,13,3,1,0,8,0,0,0,0,0,0,0,0,0,0,0,0,0,0],"split_type":[0,0,0,0,0,0,0,0,0,0,0,0,0,0,0,0,0,0,0,0,0,0,0,0,0,0,0,0,0],"sum_hessian":[8.541516E2,8.399132E2,1.4238412E1,4.830343E2,3.568789E2,7.195757E0,7.0426555E0,2.9793494E2,1.8509937E2,2.9701633E2,5.986257E1,2.7558217E0,4.4399347E0,1.531012E0,5.5116434E0,2.651713E2,3.2763657E1,1.0962046E2,7.54789E1,7.9459526E1,2.1755681E2,5.4044727E1,5.817846E0,1.2248096E0,1.531012E0,1.0717084E0,3.3682265E0,2.6027205E0,2.908923E0],"tree_param":{"num_deleted":"0","num_feature":"18","num_nodes":"29","size_leaf_vector":"1"}},{"base_weights":[4.0722634E-3,-3.4872387E-2,2.765791E-1,-1.9537051E-1,3.696013E-2,-5.0058424E-1,3.7658238E-1,3.603083E-1,-2.9563794E-1,1.6971646E-1,-8.0120265E-2,5.0069463E-1,-8.1068015E-1,7.774566E-1,2.1654786E-1,-1.1296236E-2,1.0944209E-1,6.894881E-2,-3.4933314E-2,6.1782547E-3,6.1777133E-2,-1.4784582E-2,4.1396976E-2,-6.042294E-2,1.294565E-1,-1.0806997E-1,2.7754236E-2,8.655149E-3,1.3835832E-1,3.3472907E-2,-5.1035237E-2],"categories":[],"categories_nodes":[],"categories_segments":[],"categories_sizes":[],"default_left":[0,0,0,0,0,0,0,0,0,0,0,0,0,0,0,0,0,0,0,0,0,0,0,0,0,0,0,0,0,0,0],"id":1,"left_children":[1,3,5,7,9,11,13,15,17,19,21,23,25,27,29,-1,-1,-1,-1,-1,-1,-1,-1,-1,-1,-1,-1,-1,-1,-1,-1],"loss_changes":[9.140953E0,8.685945E0,8.549275E0,1.3076937E1,8.097094E0,4.348502E0,5.899885E0,1.2694853E1,1.0680815E1,1.1701963E1,9.2810335E0,3.939707E0,3.3413239E0,1.0983742E1,6.1901627E0,0E0,0E0,0E0,0E0,0E0,0E0,0E0,0E0,0E0,0E0,0E0,0E0,0E0,0E0,0E0,0E0],"parents":[2147483647,0,0,1,1,2,2,3,3,4,4,5,5,6,6,7,7,8,8,9,9,10,10,11,11,12,12,13,13,14,14],"right_children":[2,4,6,8,10,12,14,16,18,20,22,24,26,28,30,-1,-1,-1,-1,-1,-1,-1,-1,-1,-1,-1,-1,-1,-1,-1,-1],"split_conditions":[3.6518524E1,1.9797894E1,1.2965706E1,1.5100847E1,2.4432264E1,1.6692934E1,3.914797E2,1.22292E1,8.1347E0,2.2155945E1,3.6811188E1,1.2704098E1,5.2157654E2,2.5217922E1,3.520598E1,-1.1296236E-2,1.0944209E-1,6.894881E-2,-3.4933314E-2,6.1782547E-3,6.1777133E-2,-1.4784582E-2,4.1396976E-2,-6.042294E-2,1.294565E-1,-1.0806997E-1,2.7754236E-2,8.655149E-3,1.3835832E-1,3.3472907E-2,-5.1035237E-2],"split_indices":[13,12,14,3,6,0,17,3,2,6,9,0,15,2,2,0,0,0,0,0,0,0,0,0,0,0,0,0,0,0,0],"split_type":[0,0,0,0,0,0,0,0,0,0,0,0,0,0,0,0,0,0,0,0,0,0,0,0,0,0,0,0,0,0,0],"sum_hessian":[8.5713696E2,7.504004E2,1.0673657E2,2.319092E2,5.184912E2,1.1598052E1,9.513852E1,3.4900574E1,1.9700862E2,2.4316888E2,2.7532233E2,2.5209496E0,9.077102E0,2.5865215E1,6.92733E1,2.1651867E1,1.3248708E1,9.474801E0,1.8753383E2,1.9705945E2,4.610944E1,2.4292714E2,3.2395172E1,1.101198E0,1.4197518E0,7.351731E0,1.7253712E0,1.2698435E1,1.316678E1,6.0168106E1,9.105197E0],"tree_param":{"num_deleted":"0","num_feature":"18","num_nodes":"31","size_leaf_vector":"1"}},{"base_weights":[-8.009649E-3,-9.371865E-1,5.172225E-2,-9.88154E-1,4.815739E-2,-4.2818906E-3,2.7823424E-1,1.5571894E-3,-1.021544E0,1.0816046E-1,-1.02755815E-1,-4.742703E-1,3.612363E-1,-4.3697372E-2,-1.0677812E-1,-2.3062842E-2,2.363533E-2,-1.0065294E-3,-2.6630417E-2,-7.874324E-2,1.11497484E-1,2.0381896E-2,8.835358E-2],"categories":[],"categories_nodes":[],"categories_segments":[],"categories_sizes":[],"default_left":[0,0,0,0,0,0,0,0,0,0,0,0,0,0,0,0,0,0,0,0,0,0,0],"id":2,"left_children":[1,3,5,7,-1,9,11,-1,13,15,17,19,21,-1,-1,-1,-1,-1,-1,-1,-1,-1,-1],"loss_changes":[4.7688084E1,4.2796593E0,1.0251285E1,1.8089409E0,0E0,7.1716313E0,1.0160744E1,0E0,7.069168E-1,1.3169496E1,5.21134E0,8.917311E0,1.1624422E1,0E0,0E0,0E0,0E0,0E0,0E0,0E0,0E0,0E0,0E0],"parents":[2147483647,0,0,1,1,2,2,3,3,5,5,6,6,8,8,9,9,10,10,11,11,12,12],"right_children":[2,4,6,8,-1,10,12,-1,14,16,18,20,22,-1,-1,-1,-1,-1,-1,-1,-1,-1,-1],"split_conditions":[1.0070906E1,6.597384E2,3.333699E1,2.5590303E2,4.815739E-2,2.3884773E1,1.2247689E1,1.5571894E-3,1.22292E1,1.8958973E1,4.8963254E2,3.728728E1,3.347822E1,-4.3697372E-2,-1.0677812E-1,-2.3062842E-2,2.363533E-2,-1.0065294E-3,-2.6630417E-2,-7.874324E-2,1.11497484E-1,2.0381896E-2,8.835358E-2],"split_indices":[4,17,12,16,0,3,14,0,3,11,15,7,4,0,0,0,0,0,0,0,0,0,0],"split_type":[0,0,0,0,0,0,0,0,0,0,0,0,0,0,0,0,0,0,0,0,0,0,0],"sum_hessian":[8.557528E2,5.0902866E1,8.0485E2,4.949867E1,1.4041967E0,6.4573444E2,1.5911552E2,1.5143733E0,4.7984295E1,3.0096454E2,3.447699E2,1.5219086E1,1.4389644E2,4.4417167E0,4.354258E1,8.218536E1,2.1877917E2,2.2112242E2,1.2364748E2,1.3187856E1,2.0312304E0,1.1178648E2,3.2109955E1],"tree_param":{"num_deleted":"0","num_feature":"18","num_nodes":"23","size_leaf_vector":"1"}},{"base_weights":[2.969063E-2,-9.249662E-1,8.867514E-2,-9.788377E-1,6.961239E-2,5.6706857E-2,5.4872257E-1,-0E0,-1.012297E0,-2.1935074E-2,1.9103688E-1,-5.898186E-1,7.4930334E-1,-1.0470579E-1,-1.6973827E-2,4.5503057E-3,-2.6657624E-2,8.276176E-2,8.654524E-3,9.184251E-3,-7.51706E-2,3.9596442E-2,1.4523113E-1],"categories":[],"categories_nodes":[],"categories_segments":[],"categories_sizes":[],"default_left":[0,0,0,0,0,0,0,0,0,0,0,0,0,0,0,0,0,0,0,0,0,0,0],"id":3,"left_children":[1,3,5,7,-1,9,11,-1,13,15,17,19,21,-1,-1,-1,-1,-1,-1,-1,-1,-1,-1],"loss_changes":[4.8300404E1,5.067814E0,1.1804534E1,1.5304298E0,0E0,8.02485E0,1.2387466E1,0E0,1.0799675E0,7.925387E0,1.8484468E1,1.0519824E0,1.0400389E1,0E0,0E0,0E0,0E0,0E0,0E0,0E0,0E0,0E0,0E0],"parents":[2147483647,0,0,1,1,2,2,3,3,5,5,6,6,8,8,9,9,10,10,11,11,12,12],"right_children":[2,4,6,8,-1,10,12,-1,14,16,18,20,22,-1,-1,-1,-1,-1,-1,-1,-1,-1,-1],"split_conditions":[1.0070906E1,6.8606647E2,4.0361507E1,2.5590303E2,6.961239E-2,2.8171618E1,3.4325632E2,-0E0,4.041321E1,3.272133E1,2.9471075E1,4.131465E1,2.9804811E1,-1.0470579E-1,-1.6973827E-2,4.5503057E-3,-2.6657624E-2,8.276176E-2,8.654524E-3,9.184251E-3,-7.51706E-2,3.9596442E-2,1.4523113E-1],"split_indices":[4,17,7,16,0,8,17,0,0,0,8,7,11,0,0,0,0,0,0,0,0,0,0],"split_type":[0,0,0,0,0,0,0,0,0,0,0,0,0,0,0,0,0,0,0,0,0,0,0],"sum_hessian":[8.5678796E2,4.8904118E1,8.0788385E2,4.777437E1,1.1297483E0,7.566458E2,5.1238007E1,1.6775141E0,4.6096855E1,4.7730533E2,2.793405E2,7.3093586E0,4.392865E1,4.3923344E1,2.1735113E0,3.7448068E2,1.0282464E2,3.8276455E1,2.4106406E2,1.3672454E0,5.942113E0,3.0369911E1,1.3558737E1],"tree_param":{"num_deleted":"0","num_feature":"18","num_nodes":"23","size_leaf_vector":"1"}},{"base_weights":[-3.1221563E-3,-9.582306E-1,5.3475995E-2,-9.9364907E-1,2.2630533E-2,1.675993E-1,-9.3473144E-2,-1.0269717E0,-2.1617281E-1,1.446324E-1,9.8173463E-1,-1.3179818E-1,6.514412E-1,-1.0647289E-1,-2.3519166E-2,-6.463334E-2,3.361782E-2,2.1302069E-2,-1.3910675E-2,1.8786293E-1,5.4197116E-3,7.2246874E-3,-2.0824006E-2,-2.6405305E-2,9.927546E-2],"categories":[],"categories_nodes":[],"categories_segments":[],"categories_sizes":[],"default_left":[0,0,0,0,0,0,0,0,0,0,0,0,0,0,0,0,0,0,0,0,0,0,0,0,0],"id":4,"left_children":[1,3,5,7,-1,9,11,13,15,17,19,21,23,-1,-1,-1,-1,-1,-1,-1,-1,-1,-1,-1,-1],"loss_changes":[4.6479404E1,2.3198624E0,1.3608525E1,8.7073135E-1,0E0,8.285077E0,1.0150903E1,9.546089E-1,1.0372778E0,8.681219E0,9.885936E0,5.300543E0,5.7659607E0,0E0,0E0,0E0,0E0,0E0,0E0,0E0,0E0,0E0,0E0,0E0,0E0],"parents":[2147483647,0,0,1,1,2,2,3,3,5,5,6,6,7,7,8,8,9,9,10,10,11,11,12,12],"right_children":[2,4,6,8,-1,10,12,14,16,18,20,22,24,-1,-1,-1,-1,-1,-1,-1,-1,-1,-1,-1,-1],"split_conditions":[1.0070906E1,6.597384E2,2.6580893E1,4.041321E1,2.2630533E-2,6.3900745E2,4.1896336E1,4.1243607E1,2.230019E1,5.3093475E2,1.6632732E1,1.9194317E1,1.7780722E1,-1.0647289E-1,-2.3519166E-2,-6.463334E-2,3.361782E-2,2.1302069E-2,-1.3910675E-2,1.8786293E-1,5.4197116E-3,7.2246874E-3,-2.0824006E-2,-2.6405305E-2,9.927546E-2],"split_indices":[4,17,5,0,0,15,9,5,3,15,5,14,1,0,0,0,0,0,0,0,0,0,0,0,0],"split_type":[0,0,0,0,0,0,0,0,0,0,0,0,0,0,0,0,0,0,0,0,0,0,0,0,0],"sum_hessian":[8.561945E2,4.7105946E1,8.090886E2,4.5976776E1,1.1291679E0,4.5571344E2,3.5337515E2,4.365615E1,2.320625E0,4.444752E2,1.1238242E1,3.3699448E2,1.6380684E1,4.121951E1,2.436642E0,1.31074E0,1.0098851E0,3.5863644E2,8.583874E1,5.137379E0,6.1008635E0,9.150048E1,2.45494E2,4.4304366E0,1.1950246E1],"tree_param":{"num_deleted":"0","num_feature":"18","num_nodes":"25","size_leaf_vector":"1"}},{"base_weights":[-2.2544181E-2,3.5680076E-1,-4.8088804E-2,2.2855107E-1,1.9977622E0,4.3235326E-1,-6.475689E-2,-1.1894245E-2,1.1053705E0,2.472374E-2,2.6013508E-1,8.56844E-1,-3.305181E-1,1.110025E-2,-1.6943926E-1,-6.980127E-2,1.9611748E-2,2.051194E-1,-2.5223508E-2,2.2745752E-1,5.9870463E-2,-8.8814974E-2,5.385707E-2,8.558143E-6,1.8773882E-1,-2.1712063E-2,5.994019E-2],"categories":[],"categories_nodes":[],"categories_segments":[],"categories_sizes":[],"default_left":[0,0,0,0,0,0,0,0,0,0,0,0,0,0,0,0,0,0,0,0,0,0,0,0,0,0,0],"id":5,"left_children":[1,3,5,7,9,11,13,15,17,-1,-1,19,21,23,25,-1,-1,-1,-1,-1,-1,-1,-1,-1,-1,-1,-1],"loss_changes":[8.316845E0,1.0708323E1,6.45035E0,1.0953324E1,3.0201693E0,9.070748E0,6.2164125E0,6.0695934E0,1.5022308E1,0E0,0E0,4.8259945E0,5.4956307E0,9.124258E0,1.2138232E1,0E0,0E0,0E0,0E0,0E0,0E0,0E0,0E0,0E0,0E0,0E0,0E0],"parents":[2147483647,0,0,1,1,2,2,3,3,4,4,5,5,6,6,7,7,8,8,11,11,12,12,13,13,14,14],"right_children":[2,4,6,8,10,12,14,16,18,-1,-1,20,22,24,26,-1,-1,-1,-1,-1,-1,-1,-1,-1,-1,-1,-1],"split_conditions":[9.590354E0,4.491553E1,6.3327723E0,3.4682858E1,2.1947191E1,2.7308146E1,2.6966255E1,1.7747051E1,3.8970474E1,2.472374E-2,2.6013508E-1,1.1499339E1,2.68336E1,5.166044E1,4.1896336E1,-6.980127E-2,1.9611748E-2,2.051194E-1,-2.5223508E-2,2.2745752E-1,5.9870463E-2,-8.8814974E-2,5.385707E-2,8.558143E-6,1.8773882E-1,-2.1712063E-2,5.994019E-2],"split_indices":[6,7,2,11,1,0,5,14,11,0,0,5,9,13,9,0,0,0,0,0,0,0,0,0,0,0,0],"split_type":[0,0,0,0,0,0,0,0,0,0,0,0,0,0,0,0,0,0,0,0,0,0,0,0,0,0,0],"sum_hessian":[8.586868E2,5.310973E1,8.055771E2,5.0373035E1,2.7366965E0,2.5973614E1,7.796035E2,4.021695E1,1.0156084E1,1.1055816E0,1.631115E0,1.6692932E1,9.280683E0,4.5200253E2,3.2760095E2,8.91995E0,3.1297E1,5.728142E0,4.4279428E0,1.3083745E0,1.5384557E1,5.710072E0,3.5706108E0,4.5039798E2,1.6045815E0,3.0926865E2,1.8332314E1],"tree_param":{"num_deleted":"0","num_feature":"18","num_nodes":"27","size_leaf_vector":"1"}},{"base_weights":[9.419921E-3,-8.226833E-1,5.378349E-2,-8.8077253E-1,5.522532E-2,9.859735E-1,4.103963E-2,7.0774043E-3,-9.1858697E-1,-7.2013706E-2,1.3643327E0,6.7454405E-2,-2.9292077E-1,-1.0279032E-1,-5.5396218E-2,-1.3957026E-2,2.1068433E-1,-1.3691502E-2,1.1027902E-2,-3.619146E-2,1.7090586E-1],"categories":[],"categories_nodes":[],"categories_segments":[],"categories_sizes":[],"default_left":[0,0,0,0,0,0,0,0,0,0,0,0,0,0,0,0,0,0,0,0,0],"id":6,"left_children":[1,3,5,7,-1,9,11,-1,13,-1,15,17,19,-1,-1,-1,-1,-1,-1,-1,-1],"loss_changes":[3.1506933E1,3.9690475E0,9.505396E0,1.6573448E0,0E0,8.021372E0,7.0754414E0,0E0,8.8544846E-1,0E0,1.0805017E1,6.5297475E0,8.59487E0,0E0,0E0,0E0,0E0,0E0,0E0,0E0,0E0],"parents":[2147483647,0,0,1,1,2,2,3,3,5,5,6,6,8,8,10,10,11,11,12,12],"right_children":[2,4,6,8,-1,10,12,-1,14,-1,16,18,20,-1,-1,-1,-1,-1,-1,-1,-1],"split_conditions":[1.0070906E1,6.597384E2,2.374379E0,2.5590303E2,5.522532E-2,1.7188784E1,5.990249E2,7.0774043E-3,3.1180984E1,-7.2013706E-2,3.9565216E2,1.5563768E1,4.4128082E1,-1.0279032E-1,-5.5396218E-2,-1.3957026E-2,2.1068433E-1,-1.3691502E-2,1.1027902E-2,-3.619146E-2,1.7090586E-1],"split_indices":[4,17,6,16,0,7,16,0,8,0,16,11,1,0,0,0,0,0,0,0,0],"split_type":[0,0,0,0,0,0,0,0,0,0,0,0,0,0,0,0,0,0,0,0,0],"sum_hessian":[8.5338214E2,4.2192997E1,8.1118915E2,4.0897278E1,1.2957165E0,9.8043375E0,8.013848E2,1.4287483E0,3.9468533E1,1.5676811E0,8.236656E0,7.436619E2,5.7722885E1,2.8754478E1,1.0714052E1,2.9463608E0,5.2902956E0,1.28049E2,6.15613E2,5.6640083E1,1.0828032E0],"tree_param":{"num_deleted":"0","num_feature":"18","num_nodes":"21","size_leaf_vector":"1"}},{"base_weights":[3.4428195E-3,-8.60005E-1,4.588955E-2,-1.8883085E-1,-9.5538455E-1,-1.1021927E-1,1.2834364E-1,-7.1891034E-1,9.913259E-2,-1.0025898E0,-7.978267E-3,6.5893734E-1,-1.4094377E-1,9.198113E-2,5.535398E-1,-4.704602E-3,-8.494564E-2,-1.0557043E-1,-3.7771338E-3,1.4737247E-1,-1.2067795E-2,-1.1133225E-2,-8.989046E-2,2.5143504E-2,-3.1240406E-3,-3.3301435E-2,8.519033E-2],"categories":[],"categories_nodes":[],"categories_segments":[],"categories_sizes":[],"default_left":[0,0,0,0,0,0,0,0,0,0,0,0,0,0,0,0,0,0,0,0,0,0,0,0,0,0,0],"id":7,"left_children":[1,3,5,7,9,11,13,15,-1,17,-1,19,21,23,25,-1,-1,-1,-1,-1,-1,-1,-1,-1,-1,-1,-1],"loss_changes":[3.1604136E1,2.2913303E0,1.06230545E1,4.6912675E0,1.2582283E0,6.774668E0,8.23544E0,3.1391668E-1,0E0,1.5423965E0,0E0,7.2980127E0,5.9697576E0,9.834002E0,1.1481154E1,0E0,0E0,0E0,0E0,0E0,0E0,0E0,0E0,0E0,0E0,0E0,0E0],"parents":[2147483647,0,0,1,1,2,2,3,3,4,4,5,5,6,6,7,7,9,9,11,11,12,12,13,13,14,14],"right_children":[2,4,6,8,10,12,14,16,-1,18,-1,20,22,24,26,-1,-1,-1,-1,-1,-1,-1,-1,-1,-1,-1,-1],"split_conditions":[1.0070906E1,1.372952E1,2.0727697E1,3.1299665E1,4.1277874E1,6.3327723E0,3.9520596E1,3.917652E2,9.913259E-2,4.0038105E1,-7.978267E-3,1.94468E1,4.359244E1,2.369587E1,1.6932697E1,-4.704602E-3,-8.494564E-2,-1.0557043E-1,-3.7771338E-3,1.4737247E-1,-1.2067795E-2,-1.1133225E-2,-8.989046E-2,2.5143504E-2,-3.1240406E-3,-3.3301435E-2,8.519033E-2],"split_indices":[4,0,12,14,1,2,13,16,0,0,0,13,6,6,9,0,0,0,0,0,0,0,0,0,0,0,0],"split_type":[0,0,0,0,0,0,0,0,0,0,0,0,0,0,0,0,0,0,0,0,0,0,0,0,0,0,0],"sum_hessian":[8.6245483E2,3.9398434E1,8.230564E2,5.4034243E0,3.399501E1,2.83936E2,5.3912036E2,4.056828E0,1.3465964E0,3.201005E1,1.9849565E0,9.99596E0,2.7394003E2,4.9798456E2,4.113581E1,1.0059626E0,3.0508654E0,3.0152288E1,1.857765E0,4.515104E0,5.480856E0,2.6487103E2,9.068996E0,2.1697748E2,2.8100708E2,1.0244401E1,3.0891409E1],"tree_param":{"num_deleted":"0","num_feature":"18","num_nodes":"27","size_leaf_vector":"1"}},{"base_weights":[-3.725632E-3,-8.018909E-1,3.5831902E-2,3.089021E-2,-8.423918E-1,-9.2699E-2,9.327014E-2,-1.2905735E-1,-9.189158E-1,2.7792495E-1,-1.8526058E-1,9.8051834E-1,7.956749E-2,9.541919E-2,-8.127396E-2,9.629566E-3,-9.66014E-2,5.2764542E-2,-3.8456347E-2,-5.7324808E-2,-8.836097E-3,-2.8958986E-2,1.5835385E-1,1.23597635E-2,-1.6766254E-2],"categories":[],"categories_nodes":[],"categories_segments":[],"categories_sizes":[],"default_left":[0,0,0,0,0,0,0,0,0,0,0,0,0,0,0,0,0,0,0,0,0,0,0,0,0],"id":8,"left_children":[1,3,5,-1,7,9,11,13,15,17,19,21,23,-1,-1,-1,-1,-1,-1,-1,-1,-1,-1,-1,-1],"loss_changes":[2.7231262E1,2.1459694E0,6.058041E0,0E0,1.941164E0,8.723059E0,6.713752E0,4.5619097E0,1.8784409E0,8.613436E0,7.526157E0,7.044318E0,6.111494E0,0E0,0E0,0E0,0E0,0E0,0E0,0E0,0E0,0E0,0E0,0E0,0E0],"parents":[2147483647,0,0,1,1,2,2,4,4,5,5,6,6,7,7,8,8,9,9,10,10,11,11,12,12],"right_children":[2,4,6,-1,8,10,12,14,16,18,20,22,24,-1,-1,-1,-1,-1,-1,-1,-1,-1,-1,-1,-1],"split_conditions":[1.0070906E1,5.8991947E0,1.9995207E1,3.089021E-2,1.2318391E1,1.6323206E1,2.374379E0,1.6392563E1,2.5590303E2,1.7338314E1,2.1001896E1,3.9446625E2,3.558334E1,9.541919E-2,-8.127396E-2,9.629566E-3,-9.66014E-2,5.2764542E-2,-3.8456347E-2,-5.7324808E-2,-8.836097E-3,-2.8958986E-2,1.5835385E-1,1.23597635E-2,-1.6766254E-2],"split_indices":[4,3,12,0,12,2,6,13,16,12,2,16,8,0,0,0,0,0,0,0,0,0,0,0,0],"split_type":[0,0,0,0,0,0,0,0,0,0,0,0,0,0,0,0,0,0,0,0,0,0,0,0,0],"sum_hessian":[8.581371E2,3.9730865E1,8.184062E2,1.077687E0,3.865318E1,2.5204477E2,5.6636145E2,4.131724E0,3.4521458E1,4.9751762E1,2.02293E2,7.4297414E0,5.589317E2,1.389005E0,2.7427192E0,1.3900845E0,3.313137E1,3.6389484E1,1.3362278E1,3.9237507E1,1.630555E2,2.5058155E0,4.923926E0,4.7520514E2,8.3726555E1],"tree_param":{"num_deleted":"0","num_feature":"18","num_nodes":"25","size_leaf_vector":"1"}},{"base_weights":[2.3035093E-3,-8.438253E-1,4.159495E-2,-8.887124E-1,2.7209474E-2,-1.3962522E-4,3.17037E-1,8.701799E-3,-9.325355E-1,3.8076606E-2,-3.749678E-1,2.114218E-1,1.184448E0,-9.78271E-2,-6.6815405E-3,8.461409E-3,-2.6022194E-2,6.393699E-2,-4.4983204E-2,1.18360005E-1,9.074829E-3,3.3388935E-2,1.8627854E-1],"categories":[],"categories_nodes":[],"categories_segments":[],"categories_sizes":[],"default_left":[0,0,0,0,0,0,0,0,0,0,0,0,0,0,0,0,0,0,0,0,0,0,0],"id":9,"left_children":[1,3,5,7,-1,9,11,-1,13,15,17,19,21,-1,-1,-1,-1,-1,-1,-1,-1,-1,-1],"loss_changes":[2.8538162E1,2.2112617E0,9.488749E0,1.7450047E0,0E0,1.029157E1,9.555774E0,0E0,1.2369289E0,9.022402E0,5.3184023E0,1.1273939E1,5.7726192E0,0E0,0E0,0E0,0E0,0E0,0E0,0E0,0E0,0E0,0E0],"parents":[2147483647,0,0,1,1,2,2,3,3,5,5,6,6,8,8,9,9,10,10,11,11,12,12],"right_children":[2,4,6,8,-1,10,12,-1,14,16,18,20,22,-1,-1,-1,-1,-1,-1,-1,-1,-1,-1],"split_conditions":[1.0070906E1,6.325687E2,3.6518524E1,2.5590303E2,2.7209474E-2,3.3205536E1,3.7500744E1,8.701799E-3,4.041321E1,5.580634E2,1.106808E1,1.1499339E1,2.5540531E1,-9.78271E-2,-6.6815405E-3,8.461409E-3,-2.6022194E-2,6.393699E-2,-4.4983204E-2,1.18360005E-1,9.074829E-3,3.3388935E-2,1.8627854E-1],"split_indices":[4,16,13,16,0,13,5,0,0,16,1,5,9,0,0,0,0,0,0,0,0,0,0],"split_type":[0,0,0,0,0,0,0,0,0,0,0,0,0,0,0,0,0,0,0,0,0,0,0],"sum_hessian":[8.58761E2,3.7086823E1,8.2167413E2,3.5934593E1,1.152226E0,7.1410974E2,1.0756442E2,1.4041172E0,3.453048E1,6.4861115E2,6.5498604E1,9.710057E1,1.0463853E1,3.256459E1,1.9658862E0,5.619872E2,8.662392E1,3.8918383E0,6.1606766E1,9.657798E0,8.744277E1,5.370051E0,5.093802E0],"tree_param":{"num_deleted":"0","num_feature":"18","num_nodes":"23","size_leaf_vector":"1"}},{"base_weights":[1.7425394E-2,-6.291154E-3,3.4411418E-1,3.0835945E-2,-2.6209816E-1,9.6038747E-1,-2.4262859E-2,2.1132212E-2,1.00237E0,7.651656E-2,-4.684587E-1,-4.2630583E-1,1.2199174E0,-2.2351374E-1,5.746266E-1,-2.3898622E-2,5.0964183E-3,-6.789192E-2,1.5894221E-1,2.3900645E-2,-7.379594E-2,-5.7258762E-2,1.9283658E-2,-7.7802576E-2,2.0852804E-2,2.4444973E-1,6.5829314E-2,1.0411508E-2,-6.1632108E-2,1.1925099E-1,-6.282062E-2],"categories":[],"categories_nodes":[],"categories_segments":[],"categories_sizes":[],"default_left":[0,0,0,0,0,0,0,0,0,0,0,0,0,0,0,0,0,0,0,0,0,0,0,0,0,0,0,0,0,0,0],"id":10,"left_children":[1,3,5,7,9,11,13,15,17,19,21,23,25,27,29,-1,-1,-1,-1,-1,-1,-1,-1,-1,-1,-1,-1,-1,-1,-1,-1],"loss_changes":[6.603521E0,7.5434394E0,1.3210424E1,6.393542E0,7.111425E0,8.410324E0,4.505127E0,5.313294E0,7.795739E0,5.2622423E0,4.479061E0,1.1350815E0,1.0873959E1,3.7944143E0,7.78023E0,0E0,0E0,0E0,0E0,0E0,0E0,0E0,0E0,0E0,0E0,0E0,0E0,0E0,0E0,0E0,0E0],"parents":[2147483647,0,0,1,1,2,2,3,3,4,4,5,5,6,6,7,7,8,8,9,9,10,10,11,11,12,12,13,13,14,14],"right_children":[2,4,6,8,10,12,14,16,18,20,22,24,26,28,30,-1,-1,-1,-1,-1,-1,-1,-1,-1,-1,-1,-1,-1,-1,-1,-1],"split_conditions":[4.0361507E1,3.4188046E1,2.158402E1,4.935065E1,2.1368538E1,1.2952116E1,5.184616E2,1.2000652E1,1.687787E1,3.5140347E1,3.5789665E1,2.4151888E1,2.0235086E1,2.5633272E1,3.314979E1,-2.3898622E-2,5.0964183E-3,-6.789192E-2,1.5894221E-1,2.3900645E-2,-7.379594E-2,-5.7258762E-2,1.9283658E-2,-7.7802576E-2,2.0852804E-2,2.4444973E-1,6.5829314E-2,1.0411508E-2,-6.1632108E-2,1.1925099E-1,-6.282062E-2],"split_indices":[7,7,10,11,0,1,15,3,6,3,8,12,3,3,10,0,0,0,0,0,0,0,0,0,0,0,0,0,0,0,0],"split_type":[0,0,0,0,0,0,0,0,0,0,0,0,0,0,0,0,0,0,0,0,0,0,0,0,0,0,0,0,0,0,0],"sum_hessian":[8.466553E2,7.899799E2,5.6675343E1,6.902828E2,9.9697136E1,2.0703678E1,3.5971664E1,6.8456995E2,5.712839E0,3.7806118E1,6.1891018E1,3.101918E0,1.760176E1,2.7587162E1,8.384502E0,6.9366745E1,6.152032E2,1.3939111E0,4.3189282E0,3.2209564E1,5.5965543E0,5.3717857E1,8.17316E0,1.9522612E0,1.1496568E0,4.4243007E0,1.3177461E1,1.5303413E1,1.2283749E1,5.599708E0,2.784795E0],"tree_param":{"num_deleted":"0","num_feature":"18","num_nodes":"31","size_leaf_vector":"1"}},{"base_weights":[3.7080348E-3,-6.818031E-1,3.8596362E-2,-0E0,-8.6239195E-1,-1.4894727E-1,7.9501495E-2,6.139098E-1,-3.7362337E-1,-3.2214296E-1,-1.0136658E-1,2.9809353E-1,-3.0188078E-1,9.642862E-1,6.6153154E-2,-3.3357795E-2,1.5874018E-1,-8.672201E-2,3.4583613E-2,5.2918393E-2,-6.654116E-2,1.8423392E-3,7.8976855E-2,1.2398525E-2,-4.842269E-2,-1.2564427E-2,1.6430055E-1,8.137648E-3,-7.253036E-2],"categories":[],"categories_nodes":[],"categories_segments":[],"categories_sizes":[],"default_left":[0,0,0,0,0,0,0,0,0,0,0,0,0,0,0,0,0,0,0,0,0,0,0,0,0,0,0,0,0],"id":11,"left_children":[1,3,5,7,9,11,13,15,17,19,-1,21,23,25,27,-1,-1,-1,-1,-1,-1,-1,-1,-1,-1,-1,-1,-1,-1],"loss_changes":[2.029407E1,4.994503E0,6.2191725E0,2.4340713E0,2.1874561E0,1.0000521E1,7.7000003E0,4.3158026E0,2.7388296E0,2.907373E0,0E0,5.0316133E0,8.534742E0,7.5446806E0,7.915124E0,0E0,0E0,0E0,0E0,0E0,0E0,0E0,0E0,0E0,0E0,0E0,0E0,0E0,0E0],"parents":[2147483647,0,0,1,1,2,2,3,3,4,4,5,5,6,6,7,7,8,8,9,9,11,11,12,12,13,13,14,14],"right_children":[2,4,6,8,10,12,14,16,18,20,-1,22,24,26,28,-1,-1,-1,-1,-1,-1,-1,-1,-1,-1,-1,-1,-1,-1],"split_conditions":[1.0636143E1,1.7404245E1,1.6105583E1,2.0880157E1,1.8992521E1,3.838691E2,2.374379E0,1.6965496E1,3.235796E1,1.542774E1,-1.0136658E-1,2.9524261E1,2.1617544E1,2.4111185E1,4.568226E1,-3.3357795E-2,1.5874018E-1,-8.672201E-2,3.4583613E-2,5.2918393E-2,-6.654116E-2,1.8423392E-3,7.8976855E-2,1.2398525E-2,-4.842269E-2,-1.2564427E-2,1.6430055E-1,8.137648E-3,-7.253036E-2],"split_indices":[4,13,11,14,2,17,6,14,14,0,0,13,4,0,0,0,0,0,0,0,0,0,0,0,0,0,0,0,0],"split_type":[0,0,0,0,0,0,0,0,0,0,0,0,0,0,0,0,0,0,0,0,0,0,0,0,0,0,0,0,0],"sum_hessian":[8.491333E2,4.008599E1,8.090473E2,8.689991E0,3.1396E1,1.4395413E2,6.6509314E2,2.969005E0,5.7209854E0,7.697231E0,2.3698769E1,3.62853E1,1.0766883E2,8.714694E0,6.563785E2,1.78566E0,1.1833451E0,3.3537247E0,2.3672607E0,1.9724687E0,5.724762E0,2.3920128E1,1.2365174E1,3.2211388E1,7.545744E1,3.6004338E0,5.1142607E0,6.449958E2,1.1382684E1],"tree_param":{"num_deleted":"0","num_feature":"18","num_nodes":"29","size_leaf_vector":"1"}},{"base_weights":[-3.215092E-2,-7.237952E-1,-4.1547385E-3,-2.336699E-1,-8.70042E-1,-4.905868E-2,1.6903962E-1,-7.770399E-1,7.041899E-1,-1.003517E0,-2.889767E-1,-9.6380614E-2,2.2425205E-1,5.1824456E-1,-1.2549128E-1,-8.9471586E-2,-3.4465312E-3,1.3509087E-1,-2.0023486E-2,-1.0471489E-1,-1.603305E-2,-8.395817E-2,5.780095E-2,4.6212565E-2,-1.1587055E-2,-7.4108504E-2,3.1537917E-2,3.8665023E-2,1.4350846E-1,3.1168118E-2,-3.192182E-2],"categories":[],"categories_nodes":[],"categories_segments":[],"categories_sizes":[],"default_left":[0,0,0,0,0,0,0,0,0,0,0,0,0,0,0,0,0,0,0,0,0,0,0,0,0,0,0,0,0,0,0],"id":12,"left_children":[1,3,5,7,9,11,13,15,17,19,21,23,25,27,29,-1,-1,-1,-1,-1,-1,-1,-1,-1,-1,-1,-1,-1,-1,-1,-1],"loss_changes":[1.6497362E1,2.062666E0,6.402683E0,5.213888E0,1.5204124E0,8.485272E0,1.7523981E1,4.2956042E-1,2.6147375E0,4.395504E-1,3.4787817E0,6.1110272E0,8.699109E0,8.654587E0,7.936431E0,0E0,0E0,0E0,0E0,0E0,0E0,0E0,0E0,0E0,0E0,0E0,0E0,0E0,0E0,0E0,0E0],"parents":[2147483647,0,0,1,1,2,2,3,3,4,4,5,5,6,6,7,7,8,8,9,9,10,10,11,11,12,12,13,13,14,14],"right_children":[2,4,6,8,10,12,14,16,18,20,22,24,26,28,30,-1,-1,-1,-1,-1,-1,-1,-1,-1,-1,-1,-1,-1,-1,-1,-1],"split_conditions":[1.0070906E1,1.9413862E1,3.333699E1,1.5584775E1,3.3096577E1,3.622247E1,4.2972006E2,3.0928476E1,2.486549E1,4.041321E1,2.7469128E1,2.6287445E2,1.1805967E1,3.8314224E1,1.978966E1,-8.9471586E-2,-3.4465312E-3,1.3509087E-1,-2.0023486E-2,-1.0471489E-1,-1.603305E-2,-8.395817E-2,5.780095E-2,4.6212565E-2,-1.1587055E-2,-7.4108504E-2,3.1537917E-2,3.8665023E-2,1.4350846E-1,3.1168118E-2,-3.192182E-2],"split_indices":[4,2,12,2,8,13,15,8,13,0,9,16,14,4,10,0,0,0,0,0,0,0,0,0,0,0,0,0,0,0,0],"split_type":[0,0,0,0,0,0,0,0,0,0,0,0,0,0,0,0,0,0,0,0,0,0,0,0,0,0,0,0,0,0,0],"sum_hessian":[8.5490155E2,3.2152416E1,8.2274915E2,8.143202E0,2.4009216E1,6.543822E2,1.6836694E2,5.332057E0,2.8111448E0,1.8793163E1,5.216053E0,5.5866614E2,9.571608E1,7.6841385E1,9.1525566E1,4.309569E0,1.0224881E0,1.4157199E0,1.395425E0,1.7525772E1,1.267391E0,3.2799654E0,1.9360875E0,1.7899303E1,5.4076685E2,7.5462775E0,8.816981E1,6.8535286E1,8.3061E0,2.7758804E1,6.376676E1],"tree_param":{"num_deleted":"0","num_feature":"18","num_nodes":"31","size_leaf_vector":"1"}},{"base_weights":[8.59692E-3,-6.293375E-1,3.2855988E-2,4.192625E-1,-7.545562E-1,-1.9886974E-1,8.2581155E-2,-3.455204E-2,1.3560407E-1,-8.1200653E-1,2.5577897E-2,3.025944E-1,-2.998957E-1,3.4666717E-1,4.276083E-2,3.1467956E-2,-8.7408505E-2,-1.3330735E-2,8.7313816E-2,-6.813921E-2,-1.6161477E-2,4.333486E-2,-7.414603E-2,-7.570557E-3,1.599378E-2],"categories":[],"categories_nodes":[],"categories_segments":[],"categories_sizes":[],"default_left":[0,0,0,0,0,0,0,0,0,0,0,0,0,0,0,0,0,0,0,0,0,0,0,0,0],"id":13,"left_children":[1,3,5,7,9,11,13,-1,-1,15,-1,17,19,21,23,-1,-1,-1,-1,-1,-1,-1,-1,-1,-1],"loss_changes":[1.3198949E1,4.45127E0,9.512841E0,3.3563256E0,1.9086323E0,7.4729686E0,7.1017485E0,0E0,0E0,2.2302322E0,0E0,6.3499146E0,6.2392473E0,8.655526E0,8.248866E0,0E0,0E0,0E0,0E0,0E0,0E0,0E0,0E0,0E0,0E0],"parents":[2147483647,0,0,1,1,2,2,3,3,4,4,5,5,6,6,9,9,11,11,12,12,13,13,14,14],"right_children":[2,4,6,8,10,12,14,-1,-1,16,-1,18,20,22,24,-1,-1,-1,-1,-1,-1,-1,-1,-1,-1],"split_conditions":[1.0070906E1,1.2462337E1,1.6105583E1,2.8592646E1,6.2428357E2,1.7424213E1,1.9602732E1,-3.455204E-2,1.3560407E-1,7.5302925E0,2.5577897E-2,2.73132E1,1.7659874E1,5.990249E2,2.5800955E1,3.1467956E-2,-8.7408505E-2,-1.3330735E-2,8.7313816E-2,-6.813921E-2,-1.6161477E-2,4.333486E-2,-7.414603E-2,-7.570557E-3,1.599378E-2],"split_indices":[4,3,11,8,16,4,11,0,0,12,0,2,3,16,4,0,0,0,0,0,0,0,0,0,0],"split_type":[0,0,0,0,0,0,0,0,0,0,0,0,0,0,0,0,0,0,0,0,0,0,0,0,0],"sum_hessian":[8.5440076E2,3.0235703E1,8.2416504E2,2.8897398E0,2.7345963E1,1.4472365E2,6.794414E2,1.8796288E0,1.0101111E0,2.615405E1,1.1919128E0,2.376683E1,1.20956825E2,8.768731E1,5.917541E2,1.0691787E0,2.5084871E1,1.3808251E1,9.958579E0,3.0941927E1,9.001489E1,8.185991E1,5.8274007E0,2.940096E2,2.9774448E2],"tree_param":{"num_deleted":"0","num_feature":"18","num_nodes":"25","size_leaf_vector":"1"}},{"base_weights":[1.957809E-3,-6.632888E-1,2.5802406E-2,-2.4686074E-2,-7.792291E-1,9.8763645E-2,-7.256959E-2,-4.2670968E-1,8.818093E-2,3.6234822E-2,-8.47604E-1,6.431215E-2,5.4211605E-1,-3.8003907E-2,-5.070031E-1,-7.735174E-2,3.4355942E-2,-9.2068784E-2,2.289394E-2,4.0705376E-3,8.4678106E-2,2.407477E-2,1.4492713E-1,1.521259E-2,-1.0900793E-2,4.9506452E-2,-7.03231E-2],"categories":[],"categories_nodes":[],"categories_segments":[],"categories_sizes":[],"default_left":[0,0,0,0,0,0,0,0,0,0,0,0,0,0,0,0,0,0,0,0,0,0,0,0,0,0,0],"id":14,"left_children":[1,3,5,7,9,11,13,15,-1,-1,17,19,21,23,25,-1,-1,-1,-1,-1,-1,-1,-1,-1,-1,-1,-1],"loss_changes":[1.3571642E1,2.0919209E0,5.9663973E0,2.4129205E0,2.298149E0,7.1980524E0,5.233189E0,1.5665169E0,0E0,0E0,2.1573677E0,8.085981E0,8.800901E0,4.449126E0,5.4327264E0,0E0,0E0,0E0,0E0,0E0,0E0,0E0,0E0,0E0,0E0,0E0,0E0],"parents":[2147483647,0,0,1,1,2,2,3,3,4,4,5,5,6,6,7,7,10,10,11,11,12,12,13,13,14,14],"right_children":[2,4,6,8,10,12,14,16,-1,-1,18,20,22,24,26,-1,-1,-1,-1,-1,-1,-1,-1,-1,-1,-1,-1],"split_conditions":[1.0070906E1,2.3817585E0,2.6580893E1,3.0069548E1,7.391426E0,2.5657797E1,5.990249E2,3.0364567E1,8.818093E-2,3.6234822E-2,6.2428357E2,6.3452057E2,3.401091E1,1.884686E1,1.7127903E1,-7.735174E-2,3.4355942E-2,-9.2068784E-2,2.289394E-2,4.0705376E-3,8.4678106E-2,2.407477E-2,1.4492713E-1,1.521259E-2,-1.0900793E-2,4.9506452E-2,-7.03231E-2],"split_indices":[4,4,5,14,3,5,16,0,0,0,16,15,6,14,4,0,0,0,0,0,0,0,0,0,0,0,0],"split_type":[0,0,0,0,0,0,0,0,0,0,0,0,0,0,0,0,0,0,0,0,0,0,0,0,0,0,0],"sum_hessian":[8.575182E2,2.8599598E1,8.289186E2,4.7134137E0,2.3886185E1,4.765099E2,3.524087E2,3.7083707E0,1.005043E0,1.0242072E0,2.2861979E1,4.434235E2,3.3086407E1,3.276564E2,2.4752298E1,2.6436813E0,1.0646894E0,2.1631157E1,1.2308208E0,4.3158264E2,1.1840854E1,2.5868267E1,7.2181406E0,8.8398346E1,2.3925806E2,3.720496E0,2.1031803E1],"tree_param":{"num_deleted":"0","num_feature":"18","num_nodes":"27","size_leaf_vector":"1"}},{"base_weights":[-1.3492287E-2,-7.443806E-1,1.1778865E-2,-8.350563E-1,7.683288E-2,1.0515096E-1,-8.789622E-2,-4.1975617E-1,-9.40976E-1,1.2107243E-1,-8.902051E-1,-0E0,-3.6446148E-1,6.144804E-3,-6.738261E-2,-1.4210258E-3,-9.823431E-2,-1.4152215E-4,2.3612378E-2,-1.0020868E-1,-1.0776335E-2,2.1879332E-2,-1.2214131E-2,-4.2082608E-2,9.621765E-2],"categories":[],"categories_nodes":[],"categories_segments":[],"categories_sizes":[],"default_left":[0,0,0,0,0,0,0,0,0,0,0,0,0,0,0,0,0,0,0,0,0,0,0,0,0],"id":15,"left_children":[1,3,5,7,-1,9,11,13,15,17,19,21,23,-1,-1,-1,-1,-1,-1,-1,-1,-1,-1,-1,-1],"loss_changes":[1.5741942E1,4.5551624E0,7.6459155E0,6.748333E-1,0E0,6.7588305E0,9.659448E0,1.0279119E0,6.855564E-1,5.926235E0,3.6797237E-1,8.101185E0,7.514147E0,0E0,0E0,0E0,0E0,0E0,0E0,0E0,0E0,0E0,0E0,0E0,0E0],"parents":[2147483647,0,0,1,1,2,2,3,3,5,5,6,6,7,7,8,8,9,9,10,10,11,11,12,12],"right_children":[2,4,6,8,-1,10,12,14,16,18,20,22,24,-1,-1,-1,-1,-1,-1,-1,-1,-1,-1,-1,-1],"split_conditions":[1.0070906E1,6.597384E2,2.5240479E1,3.8443859E0,7.683288E-2,4.6523945E1,3.231359E1,2.1001896E1,8.587064E0,2.5627132E1,3.52261E1,2.1367365E1,4.3979362E1,6.144804E-3,-6.738261E-2,-1.4210258E-3,-9.823431E-2,-1.4152215E-4,2.3612378E-2,-1.0020868E-1,-1.0776335E-2,2.1879332E-2,-1.2214131E-2,-4.2082608E-2,9.621765E-2],"split_indices":[4,17,3,4,0,1,10,2,12,4,7,1,6,0,0,0,0,0,0,0,0,0,0,0,0],"split_type":[0,0,0,0,0,0,0,0,0,0,0,0,0,0,0,0,0,0,0,0,0,0,0,0,0],"sum_hessian":[8.4683887E2,2.748294E1,8.1935596E2,2.6413713E1,1.069227E0,4.235436E2,3.9581235E2,6.568072E0,1.9845642E1,4.1783878E2,5.7048144E0,3.0101385E2,9.479848E1,2.3955305E0,4.172541E0,1.0086762E0,1.8836966E1,2.0243645E2,2.1540234E2,4.633715E0,1.071099E0,1.0766323E2,1.9335063E2,9.166221E1,3.1362689E0],"tree_param":{"num_deleted":"0","num_feature":"18","num_nodes":"25","size_leaf_vector":"1"}},{"base_weights":[1.5835978E-2,-5.576053E-1,3.4184713E-2,2.3389699E-1,-6.9082886E-1,1.3809237E-1,-5.245677E-2,-4.6840355E-1,1.3297258E-1,-7.611179E-1,3.4447588E-2,9.8676585E-2,6.713221E-1,-8.869226E-2,2.9903555E-1,-2.764451E-3,-6.0249813E-2,-8.319591E-2,7.4711093E-3,2.4157714E-2,-2.8988344E-3,1.0495812E-1,-1.2746902E-2,-2.548183E-3,-3.276433E-2,1.2858972E-2,1.3479863E-1],"categories":[],"categories_nodes":[],"categories_segments":[],"categories_sizes":[],"default_left":[0,0,0,0,0,0,0,0,0,0,0,0,0,0,0,0,0,0,0,0,0,0,0,0,0,0,0],"id":16,"left_children":[1,3,5,7,9,11,13,15,-1,17,-1,19,21,23,25,-1,-1,-1,-1,-1,-1,-1,-1,-1,-1,-1,-1],"loss_changes":[8.922859E0,2.978447E0,7.4512224E0,4.114524E0,1.9670372E0,7.7664466E0,5.744208E0,1.2013811E-1,0E0,1.4289322E0,0E0,6.4458966E0,7.9479275E0,6.1414065E0,7.202383E0,0E0,0E0,0E0,0E0,0E0,0E0,0E0,0E0,0E0,0E0,0E0,0E0],"parents":[2147483647,0,0,1,1,2,2,3,3,4,4,5,5,6,6,7,7,9,9,11,11,12,12,13,13,14,14],"right_children":[2,4,6,8,10,12,14,16,-1,18,-1,20,22,24,26,-1,-1,-1,-1,-1,-1,-1,-1,-1,-1,-1,-1],"split_conditions":[1.0070906E1,1.2462337E1,2.3697323E1,3.019038E1,6.2822565E2,4.0361507E1,3.8407516E1,4.3029498E2,1.3297258E-1,4.041321E1,3.4447588E-2,2.4432264E1,3.2310375E1,5.358558E2,3.6518524E1,-2.764451E-3,-6.0249813E-2,-8.319591E-2,7.4711093E-3,2.4157714E-2,-2.8988344E-3,1.0495812E-1,-1.2746902E-2,-2.548183E-3,-3.276433E-2,1.2858972E-2,1.3479863E-1],"split_indices":[4,3,10,14,16,7,5,16,0,0,0,6,4,16,13,0,0,0,0,0,0,0,0,0,0,0,0],"split_type":[0,0,0,0,0,0,0,0,0,0,0,0,0,0,0,0,0,0,0,0,0,0,0,0,0,0,0],"sum_hessian":[8.501885E2,2.5280294E1,8.249082E2,3.4250755E0,2.1855219E1,3.753353E2,4.495729E2,2.380653E0,1.0444226E0,2.0804205E1,1.051015E0,3.507787E2,2.4556604E1,4.0849332E2,4.107958E1,1.0106429E0,1.3700099E0,1.9293264E1,1.5109406E0,1.654617E2,1.8531699E2,1.653694E1,8.019664E0,3.2424496E2,8.4248344E1,3.6385204E1,4.6943727E0],"tree_param":{"num_deleted":"0","num_feature":"18","num_nodes":"27","size_leaf_vector":"1"}},{"base_weights":[2.2367552E-2,-4.78655E-1,4.1617826E-2,-3.2701027E-2,-8.661111E-1,7.957178E-1,3.1789582E-2,9.4517946E-1,-2.84655E-1,-1.4725694E-1,-9.683928E-1,1.2160034E0,-5.0132185E-1,1.113554E-1,-4.5262337E-2,1.5477555E-1,-9.090373E-3,9.560937E-2,-5.1973887E-2,-5.788475E-2,3.7718825E-2,-1.0290809E-1,-9.301157E-3,1.6345744E-1,-3.1580556E-2,-1.0162868E-2,-6.075832E-2,1.366695E-2,-5.7621546E-2,9.58576E-4,-3.2325465E-2],"categories":[],"categories_nodes":[],"categories_segments":[],"categories_sizes":[],"default_left":[0,0,0,0,0,0,0,0,0,0,0,0,0,0,0,0,0,0,0,0,0,0,0,0,0,0,0,0,0,0,0],"id":17,"left_children":[1,3,5,7,9,11,13,15,17,19,21,23,25,27,29,-1,-1,-1,-1,-1,-1,-1,-1,-1,-1,-1,-1,-1,-1,-1,-1],"loss_changes":[8.118359E0,5.2595344E0,5.9254518E0,4.0535955E0,9.58621E-1,6.2963696E0,4.945477E0,2.379073E0,4.3258266E0,9.9805397E-1,5.4321384E-1,5.8608503E0,2.001524E-3,6.942161E0,6.2693853E0,0E0,0E0,0E0,0E0,0E0,0E0,0E0,0E0,0E0,0E0,0E0,0E0,0E0,0E0,0E0,0E0],"parents":[2147483647,0,0,1,1,2,2,3,3,4,4,5,5,6,6,7,7,8,8,9,9,10,10,11,11,12,12,13,13,14,14],"right_children":[2,4,6,8,10,12,14,16,18,20,22,24,26,28,30,-1,-1,-1,-1,-1,-1,-1,-1,-1,-1,-1,-1,-1,-1,-1,-1],"split_conditions":[1.0636143E1,2.3789997E1,1.8068631E0,1.2462337E1,2.3817585E0,2.9299164E1,4.465348E2,2.4972645E1,3.0943307E2,3.0668169E1,3.975937E1,4.9039682E2,2.3381865E1,4.3218952E1,3.5004173E1,1.5477555E-1,-9.090373E-3,9.560937E-2,-5.1973887E-2,-5.788475E-2,3.7718825E-2,-1.0290809E-1,-9.301157E-3,1.6345744E-1,-3.1580556E-2,-1.0162868E-2,-6.075832E-2,1.366695E-2,-5.7621546E-2,9.58576E-4,-3.2325465E-2],"split_indices":[4,0,10,3,4,6,15,11,16,12,3,17,12,10,2,0,0,0,0,0,0,0,0,0,0,0,0,0,0,0,0],"split_type":[0,0,0,0,0,0,0,0,0,0,0,0,0,0,0,0,0,0,0,0,0,0,0,0,0,0,0,0,0,0,0],"sum_hessian":[8.4319824E2,3.0123413E1,8.130748E2,1.4628641E1,1.5494771E1,9.300886E0,8.037739E2,2.3519578E0,1.2276684E1,2.355725E0,1.3139047E1,7.1300726E0,2.1708133E0,3.9585568E2,4.0791827E2,1.235859E0,1.1160988E0,1.3992378E0,1.0877446E1,1.3399565E0,1.0157684E0,1.2016178E1,1.1228684E0,5.5984697E0,1.5316024E0,1.0644504E0,1.1063629E0,3.8271216E2,1.314353E1,3.4120422E2,6.671406E1],"tree_param":{"num_deleted":"0","num_feature":"18","num_nodes":"31","size_leaf_vector":"1"}},{"base_weights":[-6.9978624E-4,-4.3795434E-1,2.3810083E-2,8.169563E-3,-6.2863064E-1,-9.9719E-2,8.5954614E-2,-4.4719127E-1,9.087059E-1,-0E0,-7.956543E-1,6.129828E-1,-1.4070415E-1,1.760624E-1,-4.7051813E-2,4.7568355E-2,-8.460434E-2,-6.4215764E-2,1.707383E-1,-7.432408E-2,3.7699606E-2,3.5524216E-2,-8.9643225E-2,2.8108975E-2,1.5536486E-1,-9.529203E-2,-1.1272829E-2,4.0292945E-2,2.9121994E-3,-7.963202E-3,1.1307867E-1],"categories":[],"categories_nodes":[],"categories_segments":[],"categories_sizes":[],"default_left":[0,0,0,0,0,0,0,0,0,0,0,0,0,0,0,0,0,0,0,0,0,0,0,0,0,0,0,0,0,0,0],"id":18,"left_children":[1,3,5,7,9,11,13,15,17,19,21,23,25,27,29,-1,-1,-1,-1,-1,-1,-1,-1,-1,-1,-1,-1,-1,-1,-1,-1],"loss_changes":[9.210478E0,3.948574E0,6.2249556E0,6.3954816E0,3.3170843E0,7.955421E0,6.492342E0,4.202061E0,7.731449E0,2.5021205E0,3.306961E0,3.997779E0,5.630758E0,1.0697164E1,8.366014E0,0E0,0E0,0E0,0E0,0E0,0E0,0E0,0E0,0E0,0E0,0E0,0E0,0E0,0E0,0E0,0E0],"parents":[2147483647,0,0,1,1,2,2,3,3,4,4,5,5,6,6,7,7,8,8,9,9,10,10,11,11,12,12,13,13,14,14],"right_children":[2,4,6,8,10,12,14,16,18,20,22,24,26,28,30,-1,-1,-1,-1,-1,-1,-1,-1,-1,-1,-1,-1,-1,-1,-1,-1],"split_conditions":[1.1855104E1,2.0092842E1,2.0727697E1,4.8160535E2,3.6021017E2,8.1347E0,2.7511875E1,1.602069E1,2.2362562E1,3.8079376E2,9.391868E0,3.2857525E1,1.0159433E1,2.1993753E1,4.611613E1,4.7568355E-2,-8.460434E-2,-6.4215764E-2,1.707383E-1,-7.432408E-2,3.7699606E-2,3.5524216E-2,-8.9643225E-2,2.8108975E-2,1.5536486E-1,-9.529203E-2,-1.1272829E-2,4.0292945E-2,2.9121994E-3,-7.963202E-3,1.1307867E-1],"split_indices":[4,8,12,16,16,2,6,1,1,17,11,14,2,9,11,0,0,0,0,0,0,0,0,0,0,0,0,0,0,0,0],"split_type":[0,0,0,0,0,0,0,0,0,0,0,0,0,0,0,0,0,0,0,0,0,0,0,0,0,0,0,0,0,0,0],"sum_hessian":[8.535853E2,4.4628426E1,8.0895685E2,1.3492599E1,3.1135828E1,2.7001505E2,5.3894183E2,9.221879E0,4.270719E0,6.8360744E0,2.4299753E1,1.3791677E1,2.5622336E2,3.2153787E2,2.1740396E2,2.6490602E0,6.572819E0,1.4757968E0,2.794922E0,2.0376375E0,4.798437E0,1.6732905E0,2.2626463E1,1.1233362E1,2.5583153E0,7.3115716E0,2.4891179E2,1.2544137E2,1.960965E2,2.1254213E2,4.861838E0],"tree_param":{"num_deleted":"0","num_feature":"18","num_nodes":"31","size_leaf_vector":"1"}},{"base_weights":[-2.238141E-3,-5.7616866E-1,1.7340234E-2,-1.814627E-2,-7.9661834E-1,1.6384612E-1,-4.0929932E-2,-7.972915E-2,4.1579083E-1,9.674974E-3,-8.786688E-1,8.422028E-1,1.0261811E-1,-6.956002E-3,-4.6094045E-1,8.4927015E-2,-6.0631733E-2,-2.4590401E-2,-9.640415E-2,1.5017448E-1,1.182069E-2,-8.546674E-3,2.8331894E-2,-1.8362543E-2,5.683804E-3,-6.0598552E-2,4.6060372E-2],"categories":[],"categories_nodes":[],"categories_segments":[],"categories_sizes":[],"default_left":[0,0,0,0,0,0,0,0,0,0,0,0,0,0,0,0,0,0,0,0,0,0,0,0,0,0,0],"id":19,"left_children":[1,3,5,7,9,11,13,-1,15,-1,17,19,21,23,25,-1,-1,-1,-1,-1,-1,-1,-1,-1,-1,-1,-1],"loss_changes":[9.606852E0,3.37401E0,7.0354004E0,3.4597466E0,1.6341896E0,9.561464E0,8.345093E0,0E0,3.3947728E0,0E0,6.4572334E-1,8.802175E0,7.39937E0,6.171553E0,6.1471205E0,0E0,0E0,0E0,0E0,0E0,0E0,0E0,0E0,0E0,0E0,0E0,0E0],"parents":[2147483647,0,0,1,1,2,2,3,3,4,4,5,5,6,6,8,8,10,10,11,11,12,12,13,13,14,14],"right_children":[2,4,6,8,10,12,14,-1,16,-1,18,20,22,24,26,-1,-1,-1,-1,-1,-1,-1,-1,-1,-1,-1,-1],"split_conditions":[1.0636143E1,1.9413862E1,1.9194317E1,1.8141005E1,1.0698586E1,1.1249186E1,3.9468178E1,-7.972915E-2,2.8581789E1,9.674974E-3,1.3360605E1,2.4645798E1,1.4078584E1,3.86394E2,3.7593838E1,8.4927015E-2,-6.0631733E-2,-2.4590401E-2,-9.640415E-2,1.5017448E-1,1.182069E-2,-8.546674E-3,2.8331894E-2,-1.8362543E-2,5.683804E-3,-6.0598552E-2,4.6060372E-2],"split_indices":[4,2,14,10,12,8,2,0,11,0,10,11,14,16,9,0,0,0,0,0,0,0,0,0,0,0,0],"split_type":[0,0,0,0,0,0,0,0,0,0,0,0,0,0,0,0,0,0,0,0,0,0,0,0,0,0,0],"sum_hessian":[8.4809625E2,2.720727E1,8.20889E2,8.139574E0,1.9067696E1,2.335613E2,5.873277E2,2.6945484E0,5.445026E0,1.4863495E0,1.7581347E1,1.8144669E1,2.1541663E2,5.4453577E2,4.2791912E1,4.010919E0,1.4341067E0,2.6906323E0,1.4890715E1,8.860558E0,9.284112E0,1.05538795E2,1.0987783E2,1.443808E2,4.0015497E2,3.7362274E1,5.4296412E0],"tree_param":{"num_deleted":"0","num_feature":"18","num_nodes":"27","size_leaf_vector":"1"}},{"base_weights":[-1.0734174E-3,-3.2354563E-2,2.6217058E-1,1.023677E0,-3.8551837E-2,-7.9266295E-2,4.7792682E-1,-3.4741801E-3,1.744964E-1,-2.7675956E-2,-5.777547E-1,-5.232139E-1,5.5964845E-1,9.001527E-1,6.655461E-2,-4.169753E-3,7.0256524E-2,1.3845985E-1,-8.862062E-2,1.0716817E-2,-9.119347E-2,-1.9320782E-2,1.2483122E-1,-1.786741E-2,1.1419373E-1,9.125526E-2,-2.7480409E-2],"categories":[],"categories_nodes":[],"categories_segments":[],"categories_sizes":[],"default_left":[0,0,0,0,0,0,0,0,0,0,0,0,0,0,0,0,0,0,0,0,0,0,0,0,0,0,0],"id":20,"left_children":[1,3,5,7,9,11,13,-1,-1,15,17,19,21,23,25,-1,-1,-1,-1,-1,-1,-1,-1,-1,-1,-1,-1],"loss_changes":[6.9644E0,4.9064612E0,6.6918416E0,3.566844E0,4.3531265E0,1.0342736E1,9.455406E0,0E0,0E0,7.5571313E0,1.0076477E1,5.452039E0,8.083284E0,7.371723E0,8.755757E0,0E0,0E0,0E0,0E0,0E0,0E0,0E0,0E0,0E0,0E0,0E0,0E0],"parents":[2147483647,0,0,1,1,2,2,3,3,4,4,5,5,6,6,9,9,10,10,11,11,12,12,13,13,14,14],"right_children":[2,4,6,8,10,12,14,-1,-1,16,18,20,22,24,26,-1,-1,-1,-1,-1,-1,-1,-1,-1,-1,-1,-1],"split_conditions":[3.7593838E1,-2.5987685E0,2.2190674E1,2.5792927E1,4.568226E1,2.7794075E1,4.3683298E2,-3.4741801E-3,1.744964E-1,4.3307827E1,1.0167569E1,4.3143634E2,2.7582157E1,1.7237274E1,3.8875717E2,-4.169753E-3,7.0256524E-2,1.3845985E-1,-8.862062E-2,1.0716817E-2,-9.119347E-2,-1.9320782E-2,1.2483122E-1,-1.786741E-2,1.1419373E-1,9.125526E-2,-2.7480409E-2],"split_indices":[9,10,12,7,0,5,15,0,0,0,5,16,4,6,17,0,0,0,0,0,0,0,0,0,0,0,0],"split_type":[0,0,0,0,0,0,0,0,0,0,0,0,0,0,0,0,0,0,0,0,0,0,0,0,0,0,0],"sum_hessian":[8.465117E2,7.577283E2,8.8783485E1,3.3687367E0,7.543595E2,3.4444218E1,5.4339268E1,1.6948706E0,1.6738662E0,7.4065704E2,1.3702485E1,2.0522108E1,1.3922109E1,2.6109566E1,2.8229702E1,7.277629E2,1.2894145E1,1.3433142E0,1.2359171E1,8.005984E0,1.2516124E1,6.9254036E0,6.996705E0,4.7523456E0,2.135722E1,7.7190456E0,2.0510656E1],"tree_param":{"num_deleted":"0","num_feature":"18","num_nodes":"27","size_leaf_vector":"1"}},{"base_weights":[-2.317474E-2,-1.5127346E-2,-8.36561E-1,3.5645077E-1,-3.249156E-2,3.0679315E-2,-1.0580988E-1,-8.0555074E-2,4.6152836E-1,2.2277132E-2,-1.4786287E-1,-5.4503627E-2,5.9972536E-2,-1.3896491E-3,5.19633E-2,2.6263366E-2,-2.7082762E-2],"categories":[],"categories_nodes":[],"categories_segments":[],"categories_sizes":[],"default_left":[0,0,0,0,0,0,0,0,0,0,0,0,0,0,0,0,0],"id":21,"left_children":[1,3,5,7,9,-1,-1,-1,11,13,15,-1,-1,-1,-1,-1,-1],"loss_changes":[5.435025E0,5.3869467E0,2.4617767E0,4.884957E0,5.082764E0,0E0,0E0,0E0,5.182987E0,9.84567E0,1.3137769E1,0E0,0E0,0E0,0E0,0E0,0E0],"parents":[2147483647,0,0,1,1,2,2,3,3,4,4,8,8,9,9,10,10],"right_children":[2,4,6,8,10,-1,-1,-1,12,14,16,-1,-1,-1,-1,-1,-1],"split_conditions":[4.891186E1,7.623138E0,1.283219E1,1.2695127E1,2.9423595E1,3.0679315E-2,-1.0580988E-1,-8.0555074E-2,1.0926303E1,4.0246387E1,1.7188784E1,-5.4503627E-2,5.9972536E-2,-1.3896491E-3,5.19633E-2,2.6263366E-2,-2.7082762E-2],"split_indices":[14,2,5,4,0,0,0,0,7,5,7,0,0,0,0,0,0],"split_type":[0,0,0,0,0,0,0,0,0,0,0,0,0,0,0,0,0],"sum_hessian":[8.4427234E2,8.3713153E2,7.140782E0,3.6244568E1,8.0088696E2,1.0233024E0,6.11748E0,2.3739789E0,3.387059E1,5.430379E2,2.5784906E2,3.6461523E0,3.0224438E1,5.0693832E2,3.6099575E1,5.8985878E1,1.988632E2],"tree_param":{"num_deleted":"0","num_feature":"18","num_nodes":"17","size_leaf_vector":"1"}},{"base_weights":[5.1223775E-3,-5.23617E-1,1.9124638E-2,1.7624773E-1,-7.1844643E-1,2.9962825E-2,-5.248308E-1,-5.203322E-1,1.1530985E-1,2.4988562E-1,-9.2188454E-1,-1.360848E-1,6.2842585E-2,4.0556976E-1,-8.111739E-1,-6.568622E-2,-2.2137293E-3,1.0607042E-1,-5.8429338E-2,-9.81932E-2,-1.4379004E-2,6.291699E-2,-2.0212075E-2,-1.6820243E-2,1.0844885E-2,-7.084198E-2,1.3404618E-1,-1.07964076E-1,-1.3099939E-2],"categories":[],"categories_nodes":[],"categories_segments":[],"categories_sizes":[],"default_left":[0,0,0,0,0,0,0,0,0,0,0,0,0,0,0,0,0,0,0,0,0,0,0,0,0,0,0,0,0],"id":22,"left_children":[1,3,5,7,9,11,13,15,-1,17,19,21,23,25,27,-1,-1,-1,-1,-1,-1,-1,-1,-1,-1,-1,-1,-1,-1],"loss_changes":[6.2144814E0,3.1325703E0,4.8253403E0,4.3412733E0,3.6942177E0,4.4193125E0,4.625527E0,1.7497861E-1,0E0,3.1665416E0,4.2592525E-1,6.8341928E0,7.142344E0,5.536907E0,2.043992E0,0E0,0E0,0E0,0E0,0E0,0E0,0E0,0E0,0E0,0E0,0E0,0E0,0E0,0E0],"parents":[2147483647,0,0,1,1,2,2,3,3,4,4,5,5,6,6,7,7,9,9,10,10,11,11,12,12,13,13,14,14],"right_children":[2,4,6,8,10,12,14,16,-1,18,20,22,24,26,28,-1,-1,-1,-1,-1,-1,-1,-1,-1,-1,-1,-1,-1,-1],"split_conditions":[1.0070906E1,1.542774E1,4.6647785E1,3.1299665E1,1.5387837E1,1.5563768E1,1.7638132E1,2.657805E1,1.1530985E-1,2.0880157E1,3.9467094E1,1.3969175E1,1.7127903E1,2.6075418E1,2.8083218E1,-6.568622E-2,-2.2137293E-3,1.0607042E-1,-5.8429338E-2,-9.81932E-2,-1.4379004E-2,6.291699E-2,-2.0212075E-2,-1.6820243E-2,1.0844885E-2,-7.084198E-2,1.3404618E-1,-1.07964076E-1,-1.3099939E-2],"split_indices":[4,0,10,14,13,11,8,8,0,14,11,4,4,6,8,0,0,0,0,0,0,0,0,0,0,0,0,0,0],"split_type":[0,0,0,0,0,0,0,0,0,0,0,0,0,0,0,0,0,0,0,0,0,0,0,0,0,0,0,0,0],"sum_hessian":[8.43854E2,2.0647482E1,8.232065E2,4.4052134E0,1.624227E1,8.0823145E2,1.4975068E1,2.7845519E0,1.6206615E0,2.6949387E0,1.3547331E1,1.3256723E2,6.756642E2,3.3439918E0,1.1631076E1,1.7780652E0,1.0064867E0,1.2896893E0,1.4052494E0,1.2214238E1,1.3330921E0,9.733142E0,1.2283408E2,1.10579384E2,5.6508484E2,1.5875702E0,1.7564216E0,7.812959E0,3.8181171E0],"tree_param":{"num_deleted":"0","num_feature":"18","num_nodes":"29","size_leaf_vector":"1"}},{"base_weights":[-1.8290969E-2,-9.223859E-2,1.0231356E-1,-6.8186957E-1,-7.465854E-2,5.688925E-1,3.7770234E-2,4.2393122E-2,-1.0061878E0,-1.8253793E-1,2.4051817E-2,1.893554E-1,1.1733769E0,-1.5189844E-1,1.396591E-1,-6.546552E-2,1.11667074E-1,-1.0885952E-1,-7.434544E-3,4.9277156E-4,-3.162635E-2,-3.4577455E-2,9.39121E-3,4.5982435E-2,-8.293173E-2,1.6326019E-1,-4.21623E-2,8.303815E-3,-3.6712985E-2,5.350805E-2,1.0191629E-3],"categories":[],"categories_nodes":[],"categories_segments":[],"categories_sizes":[],"default_left":[0,0,0,0,0,0,0,0,0,0,0,0,0,0,0,0,0,0,0,0,0,0,0,0,0,0,0,0,0,0,0],"id":23,"left_children":[1,3,5,7,9,11,13,15,17,19,21,23,25,27,29,-1,-1,-1,-1,-1,-1,-1,-1,-1,-1,-1,-1,-1,-1,-1,-1],"loss_changes":[7.5938973E0,5.349625E0,9.652164E0,3.6642098E0,5.496805E0,8.594115E0,5.5319223E0,4.900229E0,6.092062E-1,6.2079782E0,6.956101E0,7.3054476E0,1.1618189E1,5.1058874E0,9.483159E0,0E0,0E0,0E0,0E0,0E0,0E0,0E0,0E0,0E0,0E0,0E0,0E0,0E0,0E0,0E0,0E0],"parents":[2147483647,0,0,1,1,2,2,3,3,4,4,5,5,6,6,7,7,8,8,9,9,10,10,11,11,12,12,13,13,14,14],"right_children":[2,4,6,8,10,12,14,16,18,20,22,24,26,28,30,-1,-1,-1,-1,-1,-1,-1,-1,-1,-1,-1,-1,-1,-1,-1,-1],"split_conditions":[2.8083218E1,2.6147617E2,2.9152094E1,1.9805798E1,4.437684E2,4.8391876E2,2.1438057E1,2.8637905E1,2.631474E1,2.3116837E1,1.7127903E1,3.603029E1,3.075834E1,1.5602229E1,2.4974442E1,-6.546552E-2,1.11667074E-1,-1.0885952E-1,-7.434544E-3,4.9277156E-4,-3.162635E-2,-3.4577455E-2,9.39121E-3,4.5982435E-2,-8.293173E-2,1.6326019E-1,-4.21623E-2,8.303815E-3,-3.6712985E-2,5.350805E-2,1.0191629E-3],"split_indices":[8,17,8,5,16,16,6,2,8,6,4,1,3,6,6,0,0,0,0,0,0,0,0,0,0,0,0,0,0,0,0],"split_type":[0,0,0,0,0,0,0,0,0,0,0,0,0,0,0,0,0,0,0,0,0,0,0,0,0,0,0,0,0,0,0],"sum_hessian":[8.4953955E2,5.272966E2,3.2224295E2,1.4007666E1,5.132889E2,3.8021915E1,2.8422104E2,4.505963E0,9.501702E0,2.4533214E2,2.6795676E2,2.4265217E1,1.3756699E1,9.881052E1,1.8541054E2,2.9132288E0,1.5927342E0,8.476548E0,1.025155E0,1.02231865E2,1.4310028E2,4.171976E1,2.26237E2,1.9685316E1,4.5799E0,1.0711743E1,3.0449548E0,4.731416E1,5.1496357E1,4.4769516E1,1.4064102E2],"tree_param":{"num_deleted":"0","num_feature":"18","num_nodes":"31","size_leaf_vector":"1"}},{"base_weights":[-2.1743579E-2,-4.902754E-2,1.9946899E-1,-1.882742E-2,-2.949556E-1,-1.0076727E-2,5.1129776E-1,1.7312668E-3,-3.7182757E-1,-4.1725153E-1,4.4851044E-1,-7.600372E-1,1.2682515E-1,2.5286797E-1,1.5544889E0,-1.4002485E-3,6.0655262E-2,6.474525E-2,-5.0741315E-2,-5.2975953E-2,2.4844063E-2,1.5297432E-1,-1.3664505E-3,-0E0,-9.20165E-2,-3.9179172E-2,3.3180974E-2,-6.688334E-2,5.127014E-2,-2.3268253E-2,2.0084734E-1],"categories":[],"categories_nodes":[],"categories_segments":[],"categories_sizes":[],"default_left":[0,0,0,0,0,0,0,0,0,0,0,0,0,0,0,0,0,0,0,0,0,0,0,0,0,0,0,0,0,0,0],"id":24,"left_children":[1,3,5,7,9,11,13,15,17,19,21,23,25,27,29,-1,-1,-1,-1,-1,-1,-1,-1,-1,-1,-1,-1,-1,-1,-1,-1],"loss_changes":[5.0837054E0,5.546685E0,6.0910254E0,4.9072523E0,7.6208987E0,5.912895E0,9.491668E0,6.108575E0,5.4556375E0,5.46782E0,6.129365E0,1.0898409E0,5.2405663E0,7.7979765E0,6.4393787E0,0E0,0E0,0E0,0E0,0E0,0E0,0E0,0E0,0E0,0E0,0E0,0E0,0E0,0E0,0E0,0E0],"parents":[2147483647,0,0,1,1,2,2,3,3,4,4,5,5,6,6,7,7,8,8,9,9,10,10,11,11,12,12,13,13,14,14],"right_children":[2,4,6,8,10,12,14,16,18,20,22,24,26,28,30,-1,-1,-1,-1,-1,-1,-1,-1,-1,-1,-1,-1,-1,-1,-1,-1],"split_conditions":[3.7815098E1,3.3498528E1,4.7606955E2,4.1342747E1,3.6391266E1,1.3691938E1,5.478364E2,3.2840492E1,1.1722461E1,5.5342786E2,3.6484906E2,1.4038422E1,1.9340273E1,1.6819979E1,3.8615265E2,-1.4002485E-3,6.0655262E-2,6.474525E-2,-5.0741315E-2,-5.2975953E-2,2.4844063E-2,1.5297432E-1,-1.3664505E-3,-0E0,-9.20165E-2,-3.9179172E-2,3.3180974E-2,-6.688334E-2,5.127014E-2,-2.3268253E-2,2.0084734E-1],"split_indices":[13,13,15,14,14,14,16,13,6,15,17,2,7,8,17,0,0,0,0,0,0,0,0,0,0,0,0,0,0,0,0],"split_type":[0,0,0,0,0,0,0,0,0,0,0,0,0,0,0,0,0,0,0,0,0,0,0,0,0,0,0,0,0,0,0],"sum_hessian":[8.4216516E2,7.50794E2,9.137116E1,6.700007E2,8.079333E1,5.5035122E1,3.633604E1,6.3380005E2,3.620063E1,6.987291E1,1.0920413E1,7.9057093E0,4.7129414E1,3.0194271E1,6.1417694E0,6.185214E2,1.5278633E1,3.720274E0,3.2480354E1,6.0074238E1,9.798676E0,2.6432242E0,8.277188E0,1.5427048E0,6.3630047E0,1.29546385E1,3.4174774E1,6.2092805E0,2.3984991E1,1.2982455E0,4.843524E0],"tree_param":{"num_deleted":"0","num_feature":"18","num_nodes":"31","size_leaf_vector":"1"}},{"base_weights":[-2.546255E-3,-7.076104E-2,1.086798E-1,-1.0198385E-1,2.3380105E-1,6.0132647E-1,5.5293493E-2,1.2173525E-1,-1.6740535E-1,-2.080339E-1,6.4013493E-1,7.802039E-1,-5.73697E-1,1.3621163E-1,-1.7695458E-1,-8.272702E-2,2.222286E-2,-3.6331598E-2,-3.2190902E-3,-5.555132E-2,6.554561E-2,1.3355559E-1,2.7758678E-2,1.5738074E-2,1.2595975E-1,1.5173282E-2,-8.783566E-2,2.9150957E-2,-2.3426858E-3,-4.8108067E-2,-1.9411364E-3],"categories":[],"categories_nodes":[],"categories_segments":[],"categories_sizes":[],"default_left":[0,0,0,0,0,0,0,0,0,0,0,0,0,0,0,0,0,0,0,0,0,0,0,0,0,0,0,0,0,0,0],"id":25,"left_children":[1,3,5,7,9,11,13,15,17,19,21,23,25,27,29,-1,-1,-1,-1,-1,-1,-1,-1,-1,-1,-1,-1,-1,-1,-1,-1],"loss_changes":[6.414913E0,5.002243E0,8.345007E0,7.0078216E0,8.940267E0,7.0061607E0,5.487855E0,1.0440615E1,9.747871E0,7.5620203E0,5.9708004E0,7.8689785E0,1.2252451E0,5.4048657E0,3.548131E0,0E0,0E0,0E0,0E0,0E0,0E0,0E0,0E0,0E0,0E0,0E0,0E0,0E0,0E0,0E0,0E0],"parents":[2147483647,0,0,1,1,2,2,3,3,4,4,5,5,6,6,7,7,8,8,9,9,10,10,11,11,12,12,13,13,14,14],"right_children":[2,4,6,8,10,12,14,16,18,20,22,24,26,28,30,-1,-1,-1,-1,-1,-1,-1,-1,-1,-1,-1,-1,-1,-1,-1,-1],"split_conditions":[2.8171618E1,3.8407516E1,2.8923094E1,1.748873E1,2.4084639E1,3.817384E1,3.1362026E1,1.1343169E1,2.5908476E1,3.2858643E1,1.8929667E1,2.1568085E1,1.602069E1,2.5543093E1,2.054566E1,-8.272702E-2,2.222286E-2,-3.6331598E-2,-3.2190902E-3,-5.555132E-2,6.554561E-2,1.3355559E-1,2.7758678E-2,1.5738074E-2,1.2595975E-1,1.5173282E-2,-8.783566E-2,2.9150957E-2,-2.3426858E-3,-4.8108067E-2,-1.9411364E-3],"split_indices":[8,5,8,14,1,0,5,3,14,9,3,0,1,14,10,0,0,0,0,0,0,0,0,0,0,0,0,0,0,0,0],"split_type":[0,0,0,0,0,0,0,0,0,0,0,0,0,0,0,0,0,0,0,0,0,0,0,0,0,0,0,0,0,0,0],"sum_hessian":[8.439708E2,5.2391644E2,3.2005435E2,4.761014E2,4.7815037E1,3.0105474E1,2.8994888E2,1.0718299E2,3.6891843E2,2.3022738E1,2.4792297E1,2.6493416E1,3.6120589E0,2.1565579E2,7.429309E1,9.475381E0,9.770761E1,1.4965646E2,2.1926198E2,1.6753422E1,6.2693152E0,7.4816866E0,1.7310612E1,1.2191385E1,1.4302031E1,1.1196846E0,2.4923742E0,1.09212814E2,1.0644298E2,2.4434883E1,4.9858208E1],"tree_param":{"num_deleted":"0","num_feature":"18","num_nodes":"31","size_leaf_vector":"1"}},{"base_weights":[8.157373E-3,1.6164474E-1,-2.3143208E-2,-2.8204843E-1,3.9722526E-1,-1.4640966E-1,6.7389354E-2,-3.819308E-1,8.0453885E-1,-8.2169615E-2,6.096794E-1,-3.271716E-1,-4.2926913E-4,-6.326057E-1,8.848636E-2,1.19259715E-1,-4.627795E-2,1.4069787E-1,-2.586186E-2,-2.8480008E-2,1.2348529E-1,1.1672082E-1,3.345095E-2,-3.0230132E-3,-5.1069792E-2,-7.229253E-3,7.213246E-2,2.8667629E-2,-8.256727E-2,1.3815582E-2,-1.8408354E-2],"categories":[],"categories_nodes":[],"categories_segments":[],"categories_sizes":[],"default_left":[0,0,0,0,0,0,0,0,0,0,0,0,0,0,0,0,0,0,0,0,0,0,0,0,0,0,0,0,0,0,0],"id":26,"left_children":[1,3,5,7,9,11,13,15,17,19,21,23,25,27,29,-1,-1,-1,-1,-1,-1,-1,-1,-1,-1,-1,-1,-1,-1,-1,-1],"loss_changes":[4.07332E0,1.5139891E1,7.8466387E0,5.719924E0,9.717501E0,7.826567E0,5.977934E0,6.4355392E0,3.3409503E0,8.189465E0,9.534967E0,7.1655865E0,8.601572E0,2.3891664E0,5.3531427E0,0E0,0E0,0E0,0E0,0E0,0E0,0E0,0E0,0E0,0E0,0E0,0E0,0E0,0E0,0E0,0E0],"parents":[2147483647,0,0,1,1,2,2,3,3,4,4,5,5,6,6,7,7,8,8,9,9,10,10,11,11,12,12,13,13,14,14],"right_children":[2,4,6,8,10,12,14,16,18,20,22,24,26,28,30,-1,-1,-1,-1,-1,-1,-1,-1,-1,-1,-1,-1,-1,-1,-1,-1],"split_conditions":[1.5566816E1,2.1222054E1,2.5676996E1,1.5072201E1,2.0014425E1,2.357841E1,5.8991947E0,5.1190443E0,2.9691948E1,3.8840385E1,2.6440018E1,2.119755E1,3.9234398E1,1.483913E1,3.520598E1,1.19259715E-1,-4.627795E-2,1.4069787E-1,-2.586186E-2,-2.8480008E-2,1.2348529E-1,1.1672082E-1,3.345095E-2,-3.0230132E-3,-5.1069792E-2,-7.229253E-3,7.213246E-2,2.8667629E-2,-8.256727E-2,1.3815582E-2,-1.8408354E-2],"split_indices":[8,2,8,8,7,14,3,14,9,3,2,0,9,9,2,0,0,0,0,0,0,0,0,0,0,0,0,0,0,0,0],"split_type":[0,0,0,0,0,0,0,0,0,0,0,0,0,0,0,0,0,0,0,0,0,0,0,0,0,0,0,0,0,0,0],"sum_hessian":[8.431971E2,1.4266197E2,7.005351E2,4.926132E1,9.3400665E1,2.9684592E2,4.036892E2,4.579247E1,3.4688456E0,2.8725399E1,6.467526E1,1.3176282E2,1.6508308E2,1.0824035E1,3.9286517E2,1.5044991E0,4.428797E1,2.0677915E0,1.4010541E0,2.564021E1,3.0851903E0,2.0180944E1,4.449432E1,5.098302E1,8.077979E1,1.5107892E2,1.40041685E1,1.7046405E0,9.119394E0,3.3303702E2,5.982815E1],"tree_param":{"num_deleted":"0","num_feature":"18","num_nodes":"31","size_leaf_vector":"1"}},{"base_weights":[3.7681507E-3,7.281992E-2,-7.93647E-2,3.5839695E-2,5.8052784E-1,1.8334389E-1,-1.4490946E-1,-3.389365E-2,2.725E-1,9.087176E-1,-2.2166207E-1,-5.3299934E-1,3.6365253E-1,-1.7745573E-2,-2.6672947E-1,-7.1141645E-3,4.2073052E-2,4.3616876E-2,-3.0684946E-2,1.2297114E-1,-2.981743E-2,-1.0227036E-1,6.003641E-2,-8.136717E-2,3.5587322E-2,1.0440216E-2,1.0099683E-1,5.5466205E-2,-7.701614E-3,9.281925E-2,-3.0168042E-2],"categories":[],"categories_nodes":[],"categories_segments":[],"categories_sizes":[],"default_left":[0,0,0,0,0,0,0,0,0,0,0,0,0,0,0,0,0,0,0,0,0,0,0,0,0,0,0,0,0,0,0],"id":27,"left_children":[1,3,5,7,9,11,13,15,17,19,21,23,25,27,29,-1,-1,-1,-1,-1,-1,-1,-1,-1,-1,-1,-1,-1,-1,-1,-1],"loss_changes":[4.9250474E0,8.729834E0,6.715829E0,7.2737055E0,8.59383E0,1.0219503E1,4.7992563E0,5.7431636E0,9.656599E0,9.262306E0,7.1717567E0,4.3093867E0,1.0309484E1,5.2230873E0,6.851495E0,0E0,0E0,0E0,0E0,0E0,0E0,0E0,0E0,0E0,0E0,0E0,0E0,0E0,0E0,0E0,0E0],"parents":[2147483647,0,0,1,1,2,2,3,3,4,4,5,5,6,6,7,7,8,8,9,9,10,10,11,11,12,12,13,13,14,14],"right_children":[2,4,6,8,10,12,14,16,18,20,22,24,26,28,30,-1,-1,-1,-1,-1,-1,-1,-1,-1,-1,-1,-1,-1,-1,-1,-1],"split_conditions":[2.5945099E1,5.9800287E2,1.588178E1,3.2779026E1,6.536366E2,1.5897205E1,2.461038E1,3.983744E1,3.231359E1,3.2906414E1,2.0998209E1,3.3231037E1,1.4017534E1,1.1819079E1,2.4932147E2,-7.1141645E-3,4.2073052E-2,4.3616876E-2,-3.0684946E-2,1.2297114E-1,-2.981743E-2,-1.0227036E-1,6.003641E-2,-8.136717E-2,3.5587322E-2,1.0440216E-2,1.0099683E-1,5.5466205E-2,-7.701614E-3,9.281925E-2,-3.0168042E-2],"split_indices":[0,17,7,11,17,10,10,13,10,7,10,1,7,13,17,0,0,0,0,0,0,0,0,0,0,0,0,0,0,0,0],"split_type":[0,0,0,0,0,0,0,0,0,0,0,0,0,0,0,0,0,0,0,0,0,0,0,0,0,0,0,0,0,0,0],"sum_hessian":[8.560592E2,4.6835846E2,3.8770074E2,4.3774194E2,3.0616514E1,7.675153E1,3.109492E2,3.3844995E2,9.9292015E1,2.1721668E1,8.894846E0,1.4929177E1,6.1822357E1,1.5309987E2,1.5784933E2,3.138031E2,2.464685E1,7.7747696E1,2.1544315E1,1.7208673E1,4.5129967E0,4.442895E0,4.451951E0,1.1496212E1,3.4329658E0,4.506295E1,1.6759407E1,1.3422854E1,1.3967702E2,3.6782181E0,1.5417111E2],"tree_param":{"num_deleted":"0","num_feature":"18","num_nodes":"31","size_leaf_vector":"1"}},{"base_weights":[4.638092E-3,2.4037129E-1,-1.5332274E-2,7.2452784E-1,-1.4876013E-1,-1.9591562E-1,3.331411E-2,1.1129481E0,-1.7703776E-1,1.6655883E-1,-2.5062016E-1,3.9764622E-1,-2.785081E-1,9.751428E-1,2.120136E-2,1.4295177E-1,3.4357112E-2,-5.0150853E-2,1.2136202E-1,-3.586098E-2,1.657404E-1,6.9672644E-2,-6.0542732E-2,-1.8279709E-2,-7.374712E-2,-2.902913E-2,1.6536006E-1,5.0676264E-2,4.0449202E-4],"categories":[],"categories_nodes":[],"categories_segments":[],"categories_sizes":[],"default_left":[0,0,0,0,0,0,0,0,0,0,0,0,0,0,0,0,0,0,0,0,0,0,0,0,0,0,0,0,0],"id":28,"left_children":[1,3,5,7,9,11,13,15,17,-1,19,21,23,25,27,-1,-1,-1,-1,-1,-1,-1,-1,-1,-1,-1,-1,-1,-1],"loss_changes":[4.0112333E0,1.2705734E1,6.8831005E0,1.0776812E1,7.22805E0,8.25194E0,6.902849E0,4.481146E0,4.9602222E0,0E0,7.9933295E0,6.604559E0,6.2187223E0,7.218493E0,5.0196214E0,0E0,0E0,0E0,0E0,0E0,0E0,0E0,0E0,0E0,0E0,0E0,0E0,0E0,0E0],"parents":[2147483647,0,0,1,1,2,2,3,3,4,4,5,5,6,6,7,7,8,8,10,10,11,11,12,12,13,13,14,14],"right_children":[2,4,6,8,10,12,14,16,18,-1,20,22,24,26,28,-1,-1,-1,-1,-1,-1,-1,-1,-1,-1,-1,-1,-1,-1],"split_conditions":[1.0973948E1,2.3360422E1,1.8860645E1,4.927682E2,7.476229E0,1.2771779E1,1.9091646E1,2.9772896E1,3.859427E1,1.6655883E-1,4.2430252E1,3.4527893E1,1.7892738E1,2.254181E1,5.9253073E0,1.4295177E-1,3.4357112E-2,-5.0150853E-2,1.2136202E-1,-3.586098E-2,1.657404E-1,6.9672644E-2,-6.0542732E-2,-1.8279709E-2,-7.374712E-2,-2.902913E-2,1.6536006E-1,5.0676264E-2,4.0449202E-4],"split_indices":[8,9,8,17,14,2,8,2,5,0,5,14,8,5,10,0,0,0,0,0,0,0,0,0,0,0,0,0,0],"split_type":[0,0,0,0,0,0,0,0,0,0,0,0,0,0,0,0,0,0,0,0,0,0,0,0,0,0,0,0,0],"sum_hessian":[8.454988E2,6.5562325E1,7.7993646E2,2.8944592E1,3.6617733E1,1.6530936E2,6.1462714E2,2.0142906E1,8.801684E0,1.0782517E0,3.5539482E1,1.9578745E1,1.457306E2,6.689924E0,6.079372E2,1.357097E1,6.571937E0,7.713288E0,1.0883962E0,3.445393E1,1.0855498E0,1.5393933E1,4.184811E0,1.2192156E2,2.3809046E1,2.4831614E0,4.206762E0,1.9574467E1,5.8836273E2],"tree_param":{"num_deleted":"0","num_feature":"18","num_nodes":"29","size_leaf_vector":"1"}},{"base_weights":[-2.696116E-2,-5.1962086E-3,-3.656386E-1,7.325443E-2,-1.12191044E-1,-6.813098E-1,-7.4570015E-2,1.9897309E-1,-4.1765563E-2,-6.045277E-1,-7.6024644E-2,-7.81007E-2,-8.1124264E-1,6.96796E-1,-2.6437545E-1,5.938211E-3,4.129035E-2,-1.0154827E-2,6.337814E-2,6.715038E-2,-7.7852026E-2,1.3264851E-1,-9.038708E-3,-6.710939E-2,1.0206231E-1,-1.6684152E-2,-1.01191655E-1,-1.1234016E-2,1.5329677E-1,4.8549324E-2,-4.6515446E-2],"categories":[],"categories_nodes":[],"categories_segments":[],"categories_sizes":[],"default_left":[0,0,0,0,0,0,0,0,0,0,0,0,0,0,0,0,0,0,0,0,0,0,0,0,0,0,0,0,0,0,0],"id":29,"left_children":[1,3,5,7,9,11,13,15,17,19,21,23,25,27,29,-1,-1,-1,-1,-1,-1,-1,-1,-1,-1,-1,-1,-1,-1,-1,-1],"loss_changes":[6.1817913E0,6.6789083E0,4.5290213E0,6.6513796E0,5.885436E0,1.7302113E0,4.1889944E0,6.48503E0,9.69385E0,5.578637E0,6.3456945E0,4.2332315E0,2.237381E0,4.123995E0,3.6893E0,0E0,0E0,0E0,0E0,0E0,0E0,0E0,0E0,0E0,0E0,0E0,0E0,0E0,0E0,0E0,0E0],"parents":[2147483647,0,0,1,1,2,2,3,3,4,4,5,5,6,6,7,7,8,8,9,9,10,10,11,11,12,12,13,13,14,14],"right_children":[2,4,6,8,10,12,14,16,18,20,22,24,26,28,30,-1,-1,-1,-1,-1,-1,-1,-1,-1,-1,-1,-1,-1,-1,-1,-1],"split_conditions":[4.0742493E1,2.6867966E1,4.544652E2,2.4436825E1,2.755785E1,1.588178E1,4.7301923E2,1.974311E1,3.9212475E1,9.416435E0,1.3732002E0,3.364633E1,1.8108883E1,2.8658243E1,1.7510517E1,5.938211E-3,4.129035E-2,-1.0154827E-2,6.337814E-2,6.715038E-2,-7.7852026E-2,1.3264851E-1,-9.038708E-3,-6.710939E-2,1.0206231E-1,-1.6684152E-2,-1.01191655E-1,-1.1234016E-2,1.5329677E-1,4.8549324E-2,-4.6515446E-2],"split_indices":[14,5,16,3,5,7,16,3,4,10,12,4,13,0,13,0,0,0,0,0,0,0,0,0,0,0,0,0,0,0,0],"split_type":[0,0,0,0,0,0,0,0,0,0,0,0,0,0,0,0,0,0,0,0,0,0,0,0,0,0,0,0,0,0,0],"sum_hessian":[8.429185E2,7.932512E2,4.966732E1,4.5731784E2,3.3593338E2,2.301869E1,2.6648628E1,2.1856374E2,2.3875409E2,2.1723885E1,3.1420947E2,4.4996986E0,1.8518991E1,4.630874E0,2.2017756E1,1.3331795E2,8.5245804E1,2.2025984E2,1.8494244E1,2.1946409E0,1.9529243E1,2.1884053E0,3.120211E2,3.234321E0,1.2653776E0,4.9507947E0,1.3568197E1,2.732642E0,1.8982321E0,4.2455144E0,1.777224E1],"tree_param":{"num_deleted":"0","num_feature":"18","num_nodes":"31","size_leaf_vector":"1"}},{"base_weights":[3.113501E-2,-4.4335794E-1,4.600534E-2,-6.0525644E-1,1.3560072E-1,8.4644794E-1,3.8364895E-2,-7.204819E-1,5.8952373E-2,-5.597578E-1,9.620921E-1,1.271357E0,-3.7579417E-2,-8.003394E-1,4.608425E-2,5.7706735E-3,-8.422679E-2,-1.896282E-3,-7.0131116E-2,1.6905044E-1,-1.3138468E-2,1.2826229E-2,1.7962895E-1,-1.0332531E-1,2.0393325E-2,1.1958158E-2,-2.5324468E-3],"categories":[],"categories_nodes":[],"categories_segments":[],"categories_sizes":[],"default_left":[0,0,0,0,0,0,0,0,0,0,0,0,0,0,0,0,0,0,0,0,0,0,0,0,0,0,0],"id":30,"left_children":[1,3,5,7,9,11,13,15,-1,17,19,21,-1,23,25,-1,-1,-1,-1,-1,-1,-1,-1,-1,-1,-1,-1],"loss_changes":[5.999858E0,2.548482E0,4.944494E0,3.258605E0,4.2124734E0,4.5455003E0,5.280735E0,1.9479856E0,0E0,2.2089636E-1,3.0243697E0,3.161152E0,0E0,2.0314274E0,4.290779E0,0E0,0E0,0E0,0E0,0E0,0E0,0E0,0E0,0E0,0E0,0E0,0E0],"parents":[2147483647,0,0,1,1,2,2,3,3,4,4,5,5,6,6,7,7,9,9,10,10,11,11,13,13,14,14],"right_children":[2,4,6,8,10,12,14,16,-1,18,20,22,-1,24,26,-1,-1,-1,-1,-1,-1,-1,-1,-1,-1,-1,-1],"split_conditions":[1.0636143E1,5.2744495E2,2.0699907E2,6.2041956E2,2.8956854E1,3.019038E1,2.3581253E2,1.2318391E1,5.8952373E-2,1.941782E1,4.3425473E2,2.1810953E1,-3.7579417E-2,5.3651886E2,4.465348E2,5.7706735E-3,-8.422679E-2,-1.896282E-3,-7.0131116E-2,1.6905044E-1,-1.3138468E-2,1.2826229E-2,1.7962895E-1,-1.0332531E-1,2.0393325E-2,1.1958158E-2,-2.5324468E-3],"split_indices":[4,15,16,17,12,14,16,12,0,0,16,14,0,17,15,0,0,0,0,0,0,0,0,0,0,0,0],"split_type":[0,0,0,0,0,0,0,0,0,0,0,0,0,0,0,0,0,0,0,0,0,0,0,0,0,0,0],"sum_hessian":[8.520768E2,2.4812191E1,8.272646E2,1.9489498E1,5.322693E0,6.660035E0,8.2060455E2,1.8213636E1,1.2758625E0,3.0002255E0,2.322467E0,4.972865E0,1.6871701E0,6.429307E0,8.141753E2,2.4247859E0,1.5788851E1,1.0041908E0,1.9960349E0,1.1211091E0,1.2013581E0,2.0165217E0,2.9563432E0,5.2763247E0,1.1529822E0,4.0157773E2,4.1259753E2],"tree_param":{"num_deleted":"0","num_feature":"18","num_nodes":"27","size_leaf_vector":"1"}},{"base_weights":[3.4037102E-3,-6.2274075E-1,1.8835334E-2,3.4745499E-3,-7.227247E-1,3.422946E-2,-3.655482E-1,-5.8306765E-2,6.665107E-2,-0E0,-8.56969E-1,-3.8100117E-1,4.986608E-2,3.36072E-1,-5.257775E-1,-6.311033E-2,7.3420025E-2,-9.7480667E-4,-9.7282454E-2,6.8425625E-3,-7.801269E-2,7.6619536E-3,-2.2921225E-2,7.610516E-2,-6.692459E-2,-7.055528E-2,2.3944245E-3],"categories":[],"categories_nodes":[],"categories_segments":[],"categories_sizes":[],"default_left":[0,0,0,0,0,0,0,0,0,0,0,0,0,0,0,0,0,0,0,0,0,0,0,0,0,0,0],"id":31,"left_children":[1,3,5,7,9,11,13,-1,-1,15,17,19,21,23,25,-1,-1,-1,-1,-1,-1,-1,-1,-1,-1,-1,-1],"loss_changes":[8.148404E0,1.3441E0,4.885171E0,1.8162404E0,1.6372309E0,5.169129E0,3.7661448E0,0E0,0E0,2.2436664E0,1.3417931E0,5.300494E0,5.754728E0,3.2522693E0,2.690261E0,0E0,0E0,0E0,0E0,0E0,0E0,0E0,0E0,0E0,0E0,0E0,0E0],"parents":[2147483647,0,0,1,1,2,2,3,3,4,4,5,5,6,6,9,9,10,10,11,11,12,12,13,13,14,14],"right_children":[2,4,6,8,10,12,14,-1,-1,16,18,20,22,24,26,-1,-1,-1,-1,-1,-1,-1,-1,-1,-1,-1,-1],"split_conditions":[1.0070906E1,1.3245563E1,4.3218952E1,2.408675E1,1.4991996E1,6.906529E0,1.3618032E1,-5.8306765E-2,6.665107E-2,2.6442373E1,1.1715365E1,2.4120058E1,3.8777096E1,3.1012068E1,3.2819065E1,-6.311033E-2,7.3420025E-2,-9.7480667E-4,-9.7282454E-2,6.8425625E-3,-7.801269E-2,7.6619536E-3,-2.2921225E-2,7.610516E-2,-6.692459E-2,-7.055528E-2,2.3944245E-3],"split_indices":[4,11,10,6,5,5,5,0,0,1,0,9,14,11,6,0,0,0,0,0,0,0,0,0,0,0,0],"split_type":[0,0,0,0,0,0,0,0,0,0,0,0,0,0,0,0,0,0,0,0,0,0,0,0,0,0,0],"sum_hessian":[8.473445E2,1.927845E1,8.2806604E2,2.6494734E0,1.6628977E1,7.973059E2,3.07601E1,1.3898009E0,1.2596725E0,2.8612022E0,1.3767776E1,2.7854992E1,7.694509E2,5.3986545E0,2.5361444E1,1.6766706E0,1.1845317E0,1.8904792E0,1.1877296E1,1.3373766E1,1.4481226E1,7.031301E2,6.6320816E1,4.0352654E0,1.363389E0,1.9034906E1,6.3265386E0],"tree_param":{"num_deleted":"0","num_feature":"18","num_nodes":"27","size_leaf_vector":"1"}},{"base_weights":[-4.6640346E-3,-4.7279736E-1,8.998855E-3,2.4081938E-2,-6.7526156E-1,3.302795E-2,-2.4990357E-1,8.345284E-1,-3.9018488E-1,-2.852578E-1,-8.828674E-1,2.6874043E-2,1.1083289E0,7.721864E-1,-3.3110684E-1,-3.714002E-3,1.3543175E-1,-8.1859864E-2,5.501461E-2,-7.150397E-2,7.3013924E-2,-2.4302814E-3,-9.607547E-2,1.2702827E-2,-2.998814E-3,1.7626235E-1,1.4375739E-2,-3.7568286E-2,1.4076228E-1,-5.3651292E-2,8.765567E-3],"categories":[],"categories_nodes":[],"categories_segments":[],"categories_sizes":[],"default_left":[0,0,0,0,0,0,0,0,0,0,0,0,0,0,0,0,0,0,0,0,0,0,0,0,0,0,0,0,0,0,0],"id":32,"left_children":[1,3,5,7,9,11,13,15,17,19,21,23,25,27,29,-1,-1,-1,-1,-1,-1,-1,-1,-1,-1,-1,-1,-1,-1,-1,-1],"loss_changes":[5.4321313E0,2.5044584E0,5.0773125E0,2.987384E0,1.0313063E0,4.819878E0,5.95994E0,1.558114E0,2.7970092E0,3.8595853E0,5.896063E-1,4.2669897E0,2.1755085E0,4.5029716E0,5.678927E0,0E0,0E0,0E0,0E0,0E0,0E0,0E0,0E0,0E0,0E0,0E0,0E0,0E0,0E0,0E0,0E0],"parents":[2147483647,0,0,1,1,2,2,3,3,4,4,5,5,6,6,7,7,8,8,9,9,10,10,11,11,12,12,13,13,14,14],"right_children":[2,4,6,8,10,12,14,16,18,20,22,24,26,28,30,-1,-1,-1,-1,-1,-1,-1,-1,-1,-1,-1,-1,-1,-1,-1,-1],"split_conditions":[1.0636143E1,1.8893398E1,3.8777096E1,1.7531399E1,4.1498328E2,5.166044E1,7.610841E0,4.3299353E2,3.381233E1,3.914797E2,9.95718E0,2.1471983E1,2.6263124E1,2.5702639E1,5.007032E2,-3.714002E-3,1.3543175E-1,-8.1859864E-2,5.501461E-2,-7.150397E-2,7.3013924E-2,-2.4302814E-3,-9.607547E-2,1.2702827E-2,-2.998814E-3,1.7626235E-1,1.4375739E-2,-3.7568286E-2,1.4076228E-1,-5.3651292E-2,8.765567E-3],"split_indices":[4,13,14,3,17,13,6,17,12,17,11,13,4,1,17,0,0,0,0,0,0,0,0,0,0,0,0,0,0,0,0],"split_type":[0,0,0,0,0,0,0,0,0,0,0,0,0,0,0,0,0,0,0,0,0,0,0,0,0,0,0,0,0,0,0],"sum_hessian":[8.403775E2,2.3086214E1,8.172913E2,6.7956786E0,1.6290537E1,7.490313E2,6.8259964E1,2.037181E0,4.7584977E0,6.6512885E0,9.639248E0,7.458807E2,3.150657E0,4.3070583E0,6.3952904E1,1.0360025E0,1.0011784E0,3.4310963E0,1.3274013E0,4.9502907E0,1.7009978E0,1.0176342E0,8.6216135E0,2.7030447E2,4.755762E2,1.3225197E0,1.8281372E0,1.6242956E0,2.6827629E0,4.2878365E1,2.107454E1],"tree_param":{"num_deleted":"0","num_feature":"18","num_nodes":"31","size_leaf_vector":"1"}}]},"name":"gbtree"},"learner_model_param":{"base_score":"1.8871428E-1","boost_from_average":"1","num_class":"0","num_feature":"18","num_target":"1"},"objective":{"name":"binary:logistic","reg_loss_param":{"scale_pos_weight":"1"}}},"version":[3,0,4]}